{"learner":{"attributes":{"scikit_learn":"{\"_estimator_type\": \"classifier\"}"},"feature_names":["UserID","Origin","Destination","Time","Income","Hour_Created_at","Minute_Created_at","Hour_End_at","Minute_End_at","Is_Weekend","Average_Traffic_Quality","Sentiment_Score","is_origin_and_destination_same","Day_0","Day_1","Day_2","Day_3","Day_4","Day_5","Day_6"],"feature_types":["int","int","int","int","int","int","int","int","int","int","float","float","int","int","int","int","int","int","int","int"],"gradient_booster":{"model":{"gbtree_model_param":{"num_parallel_tree":"1","num_trees":"300"},"iteration_indptr":[0,1,2,3,4,5,6,7,8,9,10,11,12,13,14,15,16,17,18,19,20,21,22,23,24,25,26,27,28,29,30,31,32,33,34,35,36,37,38,39,40,41,42,43,44,45,46,47,48,49,50,51,52,53,54,55,56,57,58,59,60,61,62,63,64,65,66,67,68,69,70,71,72,73,74,75,76,77,78,79,80,81,82,83,84,85,86,87,88,89,90,91,92,93,94,95,96,97,98,99,100,101,102,103,104,105,106,107,108,109,110,111,112,113,114,115,116,117,118,119,120,121,122,123,124,125,126,127,128,129,130,131,132,133,134,135,136,137,138,139,140,141,142,143,144,145,146,147,148,149,150,151,152,153,154,155,156,157,158,159,160,161,162,163,164,165,166,167,168,169,170,171,172,173,174,175,176,177,178,179,180,181,182,183,184,185,186,187,188,189,190,191,192,193,194,195,196,197,198,199,200,201,202,203,204,205,206,207,208,209,210,211,212,213,214,215,216,217,218,219,220,221,222,223,224,225,226,227,228,229,230,231,232,233,234,235,236,237,238,239,240,241,242,243,244,245,246,247,248,249,250,251,252,253,254,255,256,257,258,259,260,261,262,263,264,265,266,267,268,269,270,271,272,273,274,275,276,277,278,279,280,281,282,283,284,285,286,287,288,289,290,291,292,293,294,295,296,297,298,299,300],"tree_info":[0,0,0,0,0,0,0,0,0,0,0,0,0,0,0,0,0,0,0,0,0,0,0,0,0,0,0,0,0,0,0,0,0,0,0,0,0,0,0,0,0,0,0,0,0,0,0,0,0,0,0,0,0,0,0,0,0,0,0,0,0,0,0,0,0,0,0,0,0,0,0,0,0,0,0,0,0,0,0,0,0,0,0,0,0,0,0,0,0,0,0,0,0,0,0,0,0,0,0,0,0,0,0,0,0,0,0,0,0,0,0,0,0,0,0,0,0,0,0,0,0,0,0,0,0,0,0,0,0,0,0,0,0,0,0,0,0,0,0,0,0,0,0,0,0,0,0,0,0,0,0,0,0,0,0,0,0,0,0,0,0,0,0,0,0,0,0,0,0,0,0,0,0,0,0,0,0,0,0,0,0,0,0,0,0,0,0,0,0,0,0,0,0,0,0,0,0,0,0,0,0,0,0,0,0,0,0,0,0,0,0,0,0,0,0,0,0,0,0,0,0,0,0,0,0,0,0,0,0,0,0,0,0,0,0,0,0,0,0,0,0,0,0,0,0,0,0,0,0,0,0,0,0,0,0,0,0,0,0,0,0,0,0,0,0,0,0,0,0,0,0,0,0,0,0,0,0,0,0,0,0,0,0,0,0,0,0,0,0,0,0,0,0,0,0,0,0,0,0,0],"trees":[{"base_weights":[-2.2942098E-8,3.999377E-1,-1.3159246E0,-1.3487794E-3,7.506001E-1,-6.087624E-1,-1.892133E0,6.491179E-1,-1.0375377E0,7.8382725E-1,-9.42029E-2,9.5613164E-1,-1.1472926E0,-9.973667E-2,-1.0411422E0,7.350416E-1,-9.583333E-2,-1.8295122E0,8.998582E-2,8.256811E-1,-7.391048E-1,-8.9999996E-2,1.2843894E0,3.899773E-1,-1.7538445E0,-9.710145E-2,1.172886E0,3.9606765E-2,-9.354839E-2,-1.3172196E-2,-9.959101E-2,2.230899E-2,-9.652174E-2,2.4707865E-2,5.0733414E-2,-9.5744684E-2,6.430682E-2,7.559356E-2,-8.4E-2,-9.5744684E-2,7.11722E-2,-3.2320727E-2,-9.935065E-2,9.167241E-2,-7.1428575E-2],"categories":[],"categories_nodes":[],"categories_segments":[],"categories_sizes":[],"default_left":[0,0,0,0,0,0,0,0,0,0,0,0,0,0,0,0,0,0,0,0,0,0,0,0,0,0,0,0,0,0,0,0,0,0,0,0,0,0,0,0,0,0,0,0,0],"id":0,"left_children":[1,3,5,7,9,11,13,15,17,19,-1,21,23,-1,25,27,-1,29,31,33,35,-1,37,39,41,-1,43,-1,-1,-1,-1,-1,-1,-1,-1,-1,-1,-1,-1,-1,-1,-1,-1,-1,-1],"loss_changes":[1.7506965E3,3.5898892E2,3.1478198E2,8.032109E2,1.20661316E2,2.9571234E2,3.5184326E1,1.6281195E2,4.1055823E2,8.635437E1,0E0,8.37818E1,2.4362158E2,0E0,9.8034546E1,1.0698883E2,0E0,6.81073E1,1.3801048E2,8.1555725E1,8.939836E1,0E0,5.719536E1,1.8026416E2,4.7004395E1,0E0,2.7550592E1,0E0,0E0,0E0,0E0,0E0,0E0,0E0,0E0,0E0,0E0,0E0,0E0,0E0,0E0,0E0,0E0,0E0,0E0],"parents":[2147483647,0,0,1,1,2,2,3,3,4,4,5,5,6,6,7,7,8,8,9,9,11,11,12,12,14,14,15,15,17,17,18,18,19,19,20,20,22,22,23,23,24,24,26,26],"right_children":[2,4,6,8,10,12,14,16,18,20,-1,22,24,-1,26,28,-1,30,32,34,36,-1,38,40,42,-1,44,-1,-1,-1,-1,-1,-1,-1,-1,-1,-1,-1,-1,-1,-1,-1,-1,-1,-1],"split_conditions":[2.4E1,3.4E1,2.1E1,2.7E1,5.9E1,7.5E5,5.7E1,6.7E5,2.9E1,2E1,-9.42029E-2,6.29E2,1.000759E6,-9.973667E-2,1.017E3,2E1,-9.583333E-2,2.8E1,5.6463057E-1,3.7E1,2.3E1,-8.9999996E-2,5.6463057E-1,4.2E1,6.413618E-2,-9.710145E-2,2.6E1,3.9606765E-2,-9.354839E-2,-1.3172196E-2,-9.959101E-2,2.230899E-2,-9.652174E-2,2.4707865E-2,5.0733414E-2,-9.5744684E-2,6.430682E-2,7.559356E-2,-8.4E-2,-9.5744684E-2,7.11722E-2,-3.2320727E-2,-9.935065E-2,9.167241E-2,-7.1428575E-2],"split_indices":[3,6,8,8,6,4,8,4,6,5,0,1,0,0,1,5,0,8,11,8,7,0,11,6,11,0,3,0,0,0,0,0,0,0,0,0,0,0,0,0,0,0,0,0,0],"split_type":[0,0,0,0,0,0,0,0,0,0,0,0,0,0,0,0,0,0,0,0,0,0,0,0,0,0,0,0,0,0,0,0,0,0,0,0,0,0,0,0,0,0,0,0,0],"sum_hessian":[3.3245E3,2.5501506E3,7.7434937E2,1.189697E3,1.3604536E3,3.4859106E2,4.2575827E2,7.3111426E2,4.5858276E2,1.3442036E3,1.625E1,8.904967E1,2.5954138E2,3.7875E2,4.7008278E1,7.0811426E2,2.3E1,2.6900827E2,1.895745E2,1.3086953E3,3.5508278E1,9E0,8.004967E1,7.353311E1,1.8600827E2,3.35E1,1.3508278E1,6.9361426E2,1.45E1,2.5508278E1,2.435E2,1.618245E2,2.775E1,4.764735E2,8.3222186E2,2.25E1,1.3008278E1,7.479967E1,5.25E0,2.25E1,5.103311E1,3.3008278E1,1.53E2,1.1008278E1,2.5E0],"tree_param":{"num_deleted":"0","num_feature":"20","num_nodes":"45","size_leaf_vector":"1"}},{"base_weights":[-2.637628E-4,3.8004494E-1,-1.2534595E0,-1.5831982E-3,7.134099E-1,-5.8013874E-1,-1.8024336E0,6.167589E-1,-9.8759496E-1,7.450474E-1,-8.995682E-2,9.0860724E-1,-1.0926801E0,-9.500234E-2,-9.929003E-1,6.985162E-1,-9.1445744E-2,-1.7424254E0,8.512483E-2,-9.342501E-2,7.6848793E-1,-8.610945E-2,1.221845E0,3.707245E-1,-1.6703675E0,-9.260243E-2,1.1177051E0,3.764428E-2,-8.935855E-2,-1.2538959E-2,-9.486981E-2,2.120306E-2,-9.20738E-2,4.038427E-2,-3.395262E-2,7.196688E-2,-8.0593355E-2,-9.136482E-2,6.776755E-2,-3.0760134E-2,-9.4651096E-2,8.764201E-2,-6.894139E-2],"categories":[],"categories_nodes":[],"categories_segments":[],"categories_sizes":[],"default_left":[0,0,0,0,0,0,0,0,0,0,0,0,0,0,0,0,0,0,0,0,0,0,0,0,0,0,0,0,0,0,0,0,0,0,0,0,0,0,0,0,0,0,0],"id":1,"left_children":[1,3,5,7,9,11,13,15,17,19,-1,21,23,-1,25,27,-1,29,31,-1,33,-1,35,37,39,-1,41,-1,-1,-1,-1,-1,-1,-1,-1,-1,-1,-1,-1,-1,-1,-1,-1],"loss_changes":[1.5837765E3,3.243391E2,2.849297E2,7.2593115E2,1.095069E2,2.67261E2,3.1753784E1,1.4759381E2,3.7172485E2,8.3805786E1,0E0,7.620039E1,2.2045438E2,0E0,8.8933945E1,9.713776E1,0E0,6.180005E1,1.2516981E2,0E0,7.61991E1,0E0,5.2200333E1,1.6353223E2,4.2679993E1,0E0,2.5380026E1,0E0,0E0,0E0,0E0,0E0,0E0,0E0,0E0,0E0,0E0,0E0,0E0,0E0,0E0,0E0,0E0],"parents":[2147483647,0,0,1,1,2,2,3,3,4,4,5,5,6,6,7,7,8,8,9,9,11,11,12,12,14,14,15,15,17,17,18,18,20,20,22,22,23,23,24,24,26,26],"right_children":[2,4,6,8,10,12,14,16,18,20,-1,22,24,-1,26,28,-1,30,32,-1,34,-1,36,38,40,-1,42,-1,-1,-1,-1,-1,-1,-1,-1,-1,-1,-1,-1,-1,-1,-1,-1],"split_conditions":[2.4E1,3.4E1,2.1E1,2.7E1,5.9E1,7.5E5,5.7E1,6.7E5,2.9E1,3E0,-8.995682E-2,6.29E2,1.000759E6,-9.500234E-2,1.017E3,2E1,-9.1445744E-2,2.8E1,5.6463057E-1,-9.342501E-2,2E1,-8.610945E-2,5.6463057E-1,4.2E1,6.413618E-2,-9.260243E-2,2.6E1,3.764428E-2,-8.935855E-2,-1.2538959E-2,-9.486981E-2,2.120306E-2,-9.20738E-2,4.038427E-2,-3.395262E-2,7.196688E-2,-8.0593355E-2,-9.136482E-2,6.776755E-2,-3.0760134E-2,-9.4651096E-2,8.764201E-2,-6.894139E-2],"split_indices":[3,6,8,8,6,4,8,4,6,7,0,1,0,0,1,5,0,8,11,0,5,0,11,6,11,0,3,0,0,0,0,0,0,0,0,0,0,0,0,0,0,0,0],"split_type":[0,0,0,0,0,0,0,0,0,0,0,0,0,0,0,0,0,0,0,0,0,0,0,0,0,0,0,0,0,0,0,0,0,0,0,0,0,0,0,0,0,0,0],"sum_hessian":[3.321065E3,2.5483967E3,7.726681E2,1.1886521E3,1.3597448E3,3.4795523E2,4.2471283E2,7.307579E2,4.578942E2,1.3435308E3,1.6214003E1,8.891546E1,2.5903976E2,3.7780966E2,4.6903152E1,7.078106E2,2.2947271E1,2.684044E2,1.8948984E2,1.1243125E1,1.3322876E3,8.9818E0,7.9933655E1,7.341705E1,1.8562273E2,3.3421158E1,1.3481996E1,6.933423E2,1.4468322E1,2.5507174E1,2.428972E2,1.6180437E2,2.7685467E1,1.2975925E3,3.469507E1,7.469291E1,5.24075E0,2.2448513E1,5.096854E1,3.299966E1,1.5262306E2,1.0985182E1,2.4968143E0],"tree_param":{"num_deleted":"0","num_feature":"20","num_nodes":"43","size_leaf_vector":"1"}},{"base_weights":[-5.8898586E-4,4.4528717E-1,-9.7970283E-1,9.784975E-2,7.4862766E-1,-1.7252337E0,-4.954012E-1,5.839827E-1,-9.752998E-1,7.741397E-1,-8.4489495E-2,1.07505806E-1,-9.128966E-2,-5.1184656E-4,-1.3445947E0,7.229352E-1,-4.7070894E-1,-9.065691E-2,1.6979728E-2,-8.8177346E-2,7.9632056E-1,-8.3760075E-2,8.113792E-2,4.3385106E-1,-1.085465E0,-2.3285348E-2,-9.268669E-2,3.9057333E-2,-8.590359E-2,1.6148632E-2,-9.730123E-2,-9.4755076E-2,1.6751394E-2,4.343202E-2,2.426066E-3,3.1245813E-2,-9.084928E-2,2.018392E-2,-9.023455E-2,4.174083E-2,-9.620656E-2],"categories":[],"categories_nodes":[],"categories_segments":[],"categories_sizes":[],"default_left":[0,0,0,0,0,0,0,0,0,0,0,0,0,0,0,0,0,0,0,0,0,0,0,0,0,0,0,0,0,0,0,0,0,0,0,0,0,0,0,0,0],"id":2,"left_children":[1,3,5,7,9,11,13,15,17,19,-1,21,-1,23,25,27,29,-1,31,-1,33,-1,-1,35,37,39,-1,-1,-1,-1,-1,-1,-1,-1,-1,-1,-1,-1,-1,-1,-1],"loss_changes":[1.4466368E3,2.398877E2,3.735108E2,5.548339E2,7.6917786E1,7.537244E1,2.6473782E2,1.0759105E2,2.757182E2,6.914783E1,0E0,6.258145E1,0E0,1.8850514E2,1.559927E2,9.328146E1,1.0109191E2,0E0,9.3558945E1,0E0,6.4517944E1,0E0,0E0,1.2397809E2,1.2320859E2,1.0849029E2,0E0,0E0,0E0,0E0,0E0,0E0,0E0,0E0,0E0,0E0,0E0,0E0,0E0,0E0,0E0],"parents":[2147483647,0,0,1,1,2,2,3,3,4,4,5,5,6,6,7,7,8,8,9,9,11,11,13,13,14,14,15,15,16,16,18,18,20,20,23,23,24,24,25,25],"right_children":[2,4,6,8,10,12,14,16,18,20,-1,22,-1,24,26,28,30,-1,32,-1,34,-1,-1,36,38,40,-1,-1,-1,-1,-1,-1,-1,-1,-1,-1,-1,-1,-1,-1,-1],"split_conditions":[2E1,3.4E1,3E1,2.8E1,5.9E1,5.4888513E-2,8.38E2,1.4E1,2.9E1,3E0,-8.4489495E-2,6.5E1,-9.128966E-2,3.2E1,7E5,2E1,1.002327E6,-9.065691E-2,1.001273E6,-8.8177346E-2,1.8E1,-8.3760075E-2,8.113792E-2,5.4E1,3.5E1,8.38E2,-9.268669E-2,3.9057333E-2,-8.590359E-2,1.6148632E-2,-9.730123E-2,-9.4755076E-2,1.6751394E-2,4.343202E-2,2.426066E-3,3.1245813E-2,-9.084928E-2,2.018392E-2,-9.023455E-2,4.174083E-2,-9.620656E-2],"split_indices":[3,6,6,8,6,11,2,3,6,7,0,10,0,3,4,5,0,0,0,0,7,0,0,6,6,1,0,0,0,0,0,0,0,0,0,0,0,0,0,0,0],"split_type":[0,0,0,0,0,0,0,0,0,0,0,0,0,0,0,0,0,0,0,0,0,0,0,0,0,0,0,0,0,0,0,0,0,0,0,0,0,0,0,0,0],"sum_hessian":[3.3116921E3,2.2758457E3,1.0358463E3,1.0614332E3,1.2144125E3,4.0690186E2,6.289445E2,7.30827E2,3.3060623E2,1.2025135E3,1.1898828E1,2.1161207E1,3.8574063E2,3.9800024E2,2.3094426E2,6.460292E2,8.479789E1,1.788043E2,1.5180193E2,9.739349E0,1.1927743E3,9.674048E0,1.148716E1,2.8464304E2,1.1335722E2,6.452799E1,1.6641628E2,6.3164606E2,1.4383076E1,5.5643963E1,2.9153927E1,2.0941956E1,1.3085997E2,1.0874457E3,1.0532862E2,2.6303714E2,2.1605883E1,3.7061283E1,7.629594E1,4.4844555E1,1.9683434E1],"tree_param":{"num_deleted":"0","num_feature":"20","num_nodes":"41","size_leaf_vector":"1"}},{"base_weights":[-8.936967E-4,4.239409E-1,-9.376529E-1,9.290599E-2,7.126677E-1,-1.6565993E0,-4.7333488E-1,5.5565363E-1,-9.3296593E-1,7.3697656E-1,-8.132082E-2,1.0255795E-1,-8.767648E-2,-9.060106E-4,-1.2873075E0,6.1657196E-1,-8.6147375E-2,-8.710385E-2,1.5615233E-2,-8.4528625E-2,7.5815326E-1,7.8097135E-2,-8.093526E-2,4.1250557E-1,-1.0392148E0,-2.297952E-2,-8.889557E-2,-9.6784614E-2,3.337782E-2,1.590774E-2,-9.386837E-2,6.1980903E-2,3.2727275E-2,2.9717023E-2,-8.710874E-2,1.919367E-2,-8.669745E-2,3.9786294E-2,-9.176612E-2],"categories":[],"categories_nodes":[],"categories_segments":[],"categories_sizes":[],"default_left":[0,0,0,0,0,0,0,0,0,0,0,0,0,0,0,0,0,0,0,0,0,0,0,0,0,0,0,0,0,0,0,0,0,0,0,0,0,0,0],"id":3,"left_children":[1,3,5,7,9,11,13,15,17,19,-1,21,-1,23,25,27,-1,-1,29,-1,31,-1,-1,33,35,37,-1,-1,-1,-1,-1,-1,-1,-1,-1,-1,-1,-1,-1],"loss_changes":[1.3135787E3,2.1697879E2,3.430053E2,5.0327814E2,7.015839E1,6.9020996E1,2.4116255E2,1.0245853E2,2.5299103E2,6.3021973E1,0E0,5.7863277E1,0E0,1.7119495E2,1.4282062E2,9.396646E1,0E0,0E0,8.805492E1,0E0,5.8615112E1,0E0,0E0,1.1279581E2,1.1295296E2,9.8498726E1,0E0,0E0,0E0,0E0,0E0,0E0,0E0,0E0,0E0,0E0,0E0,0E0,0E0],"parents":[2147483647,0,0,1,1,2,2,3,3,4,4,5,5,6,6,7,7,8,8,9,9,11,11,13,13,14,14,15,15,18,18,20,20,23,23,24,24,25,25],"right_children":[2,4,6,8,10,12,14,16,18,20,-1,22,-1,24,26,28,-1,-1,30,-1,32,-1,-1,34,36,38,-1,-1,-1,-1,-1,-1,-1,-1,-1,-1,-1,-1,-1],"split_conditions":[2E1,3.4E1,3E1,2.8E1,5.9E1,5.4888513E-2,8.38E2,6.7E5,2.9E1,3E0,-8.132082E-2,5.8E5,-8.767648E-2,3.2E1,7E5,5.7538036E-2,-8.6147375E-2,-8.710385E-2,1.5E1,-8.4528625E-2,1.000519E6,7.8097135E-2,-8.093526E-2,5.4E1,3.5E1,8.38E2,-8.889557E-2,-9.6784614E-2,3.337782E-2,1.590774E-2,-9.386837E-2,6.1980903E-2,3.2727275E-2,2.9717023E-2,-8.710874E-2,1.919367E-2,-8.669745E-2,3.9786294E-2,-9.176612E-2],"split_indices":[3,6,6,8,6,11,2,4,6,7,0,4,0,3,4,11,0,0,5,0,0,0,0,6,6,1,0,0,0,0,0,0,0,0,0,0,0,0,0],"split_type":[0,0,0,0,0,0,0,0,0,0,0,0,0,0,0,0,0,0,0,0,0,0,0,0,0,0,0,0,0,0,0,0,0,0,0,0,0,0,0],"sum_hessian":[3.2987183E3,2.2698528E3,1.0288655E3,1.0580663E3,1.2117865E3,4.027236E2,6.2614185E2,7.29475E2,3.285913E2,1.2000005E3,1.178606E1,2.1028376E1,3.8169522E2,3.968257E2,2.2931613E2,7.1119073E2,1.8284254E1,1.7688081E2,1.517105E2,9.695901E0,1.1903046E3,1.1429963E1,9.598412E0,2.8425134E2,1.1257439E2,6.439963E1,1.649165E2,1.3204626E1,6.979861E2,1.3152231E2,2.0188185E1,2.0884377E2,9.8146075E2,2.6279782E2,2.1453518E1,3.707588E1,7.549851E1,4.4746735E1,1.9652891E1],"tree_param":{"num_deleted":"0","num_feature":"20","num_nodes":"39","size_leaf_vector":"1"}},{"base_weights":[-1.2009969E-3,3.2856148E-1,-1.1055354E0,-1.7520853E-3,6.158356E-1,-5.059134E-1,-1.6009792E0,5.3323054E-1,-8.6554325E-1,2.946723E-1,8.10669E-1,8.3689135E-1,-9.729133E-1,-8.443103E-2,-8.804603E-1,6.0519147E-1,-8.2834646E-2,-1.545041E0,7.531801E-2,6.046297E-1,-6.673866E-1,8.567946E-1,-8.961349E-2,-8.234689E-2,1.1327739E0,3.657528E-1,-1.5064025E0,-8.395582E-2,1.057595E0,3.2734197E-2,-8.352792E-2,-1.3167433E-2,-8.4101744E-2,1.9635817E-2,-8.723768E-2,5.4896284E-2,2.667037E-3,-7.407924E-2,3.3050258E-2,-7.989821E-2,4.401055E-2,-8.167011E-2,6.636983E-2,-8.304189E-2,6.2950335E-2,-2.5983144E-2,-8.593566E-2,8.178347E-2,-6.1963644E-2],"categories":[],"categories_nodes":[],"categories_segments":[],"categories_sizes":[],"default_left":[0,0,0,0,0,0,0,0,0,0,0,0,0,0,0,0,0,0,0,0,0,0,0,0,0,0,0,0,0,0,0,0,0,0,0,0,0,0,0,0,0,0,0,0,0,0,0,0,0],"id":4,"left_children":[1,3,5,7,9,11,13,15,17,19,21,23,25,-1,27,29,-1,31,33,35,37,39,-1,-1,41,43,45,-1,47,-1,-1,-1,-1,-1,-1,-1,-1,-1,-1,-1,-1,-1,-1,-1,-1,-1,-1,-1,-1],"loss_changes":[1.1958682E3,2.3995456E2,2.235144E2,5.44486E2,8.4390686E1,2.1596486E2,2.4593384E1,1.1566646E2,2.8821637E2,1.5315555E2,1.0253595E2,6.732445E1,1.8268039E2,0E0,7.4335464E1,8.052164E1,0E0,4.5509277E1,1.1040508E2,1.0544496E2,1.3649815E2,4.8958923E1,0E0,0E0,4.533436E1,1.351025E2,3.7349884E1,0E0,2.1006042E1,0E0,0E0,0E0,0E0,0E0,0E0,0E0,0E0,0E0,0E0,0E0,0E0,0E0,0E0,0E0,0E0,0E0,0E0,0E0,0E0],"parents":[2147483647,0,0,1,1,2,2,3,3,4,4,5,5,6,6,7,7,8,8,9,9,10,10,11,11,12,12,14,14,15,15,17,17,18,18,19,19,20,20,21,21,24,24,25,25,26,26,28,28],"right_children":[2,4,6,8,10,12,14,16,18,20,22,24,26,-1,28,30,-1,32,34,36,38,40,-1,-1,42,44,46,-1,48,-1,-1,-1,-1,-1,-1,-1,-1,-1,-1,-1,-1,-1,-1,-1,-1,-1,-1,-1,-1],"split_conditions":[2.4E1,3.4E1,2.1E1,2.7E1,3.7E1,7.5E5,5.7E1,6.7E5,2.9E1,1.003313E6,2E1,6.29E2,1.000759E6,-8.443103E-2,1.017E3,2E1,-8.2834646E-2,2.8E1,5.6463057E-1,3.0666666E1,8.59E2,3E0,-8.961349E-2,-8.234689E-2,1.00179E6,4.2E1,6.413618E-2,-8.395582E-2,2.6E1,3.2734197E-2,-8.352792E-2,-1.3167433E-2,-8.4101744E-2,1.9635817E-2,-8.723768E-2,5.4896284E-2,2.667037E-3,-7.407924E-2,3.3050258E-2,-7.989821E-2,4.401055E-2,-8.167011E-2,6.636983E-2,-8.304189E-2,6.2950335E-2,-2.5983144E-2,-8.593566E-2,8.178347E-2,-6.1963644E-2],"split_indices":[3,6,8,8,8,4,8,4,6,0,5,1,0,0,1,5,0,8,11,10,1,5,0,0,0,6,11,0,3,0,0,0,0,0,0,0,0,0,0,0,0,0,0,0,0,0,0,0,0],"split_type":[0,0,0,0,0,0,0,0,0,0,0,0,0,0,0,0,0,0,0,0,0,0,0,0,0,0,0,0,0,0,0,0,0,0,0,0,0,0,0,0,0,0,0,0,0,0,0,0,0],"sum_hessian":[3.2818389E3,2.5277395E3,7.5409937E2,1.1762534E3,1.351486E3,3.4209384E2,4.1200552E2,7.266135E2,4.4963998E2,5.112516E2,8.402344E2,8.806912E1,2.540247E2,3.661275E2,4.587802E1,7.041972E2,2.2416292E1,2.6071054E2,1.8892944E2,3.8695383E2,1.2429776E2,8.2626337E2,1.3971031E1,8.888354E0,7.918077E1,7.247645E1,1.8154826E2,3.258403E1,1.3293991E1,6.8990564E2,1.42915535E1,2.5457417E1,2.3525311E2,1.6154262E2,2.7386833E1,2.0369499E2,1.8325885E2,7.69923E1,4.730546E1,7.1720257E0,8.190913E2,4.7188616E0,7.446191E1,2.1909485E1,5.0566963E1,3.2756424E1,1.4879182E2,1.0850909E1,2.4430816E0],"tree_param":{"num_deleted":"0","num_feature":"20","num_nodes":"49","size_leaf_vector":"1"}},{"base_weights":[-1.5200326E-3,3.133245E-1,-1.0659235E0,-2.0712772E-3,5.8697075E-1,-4.8663282E-1,-1.5474781E0,5.079786E-1,-8.3116263E-1,6.139631E-1,-7.992474E-2,7.99634E-1,-9.3609715E-1,-8.163066E-2,-8.4956825E-1,5.7647634E-1,-8.0008924E-2,-1.4916233E0,7.128792E-2,1.1184099E0,5.0447583E-1,-7.933219E-2,1.0833542E0,3.502419E-1,-1.4507349E0,-8.107891E-2,1.0168827E0,3.118197E-2,-8.0518425E-2,-1.2534498E-2,-8.1328034E-2,1.7401887E-2,-9.350371E-2,-6.3817683E-3,6.2092867E-2,-2.8053354E-4,3.3505913E-2,6.422367E-2,-7.596033E-2,-8.019804E-2,6.0262915E-2,-2.6248593E-2,-8.38924E-2,7.8879796E-2,-6.0201008E-2],"categories":[],"categories_nodes":[],"categories_segments":[],"categories_sizes":[],"default_left":[0,0,0,0,0,0,0,0,0,0,0,0,0,0,0,0,0,0,0,0,0,0,0,0,0,0,0,0,0,0,0,0,0,0,0,0,0,0,0,0,0,0,0,0,0],"id":5,"left_children":[1,3,5,7,9,11,13,15,17,19,-1,21,23,-1,25,27,-1,29,31,33,35,-1,37,39,41,-1,43,-1,-1,-1,-1,-1,-1,-1,-1,-1,-1,-1,-1,-1,-1,-1,-1,-1,-1],"loss_changes":[1.0932603E3,2.1728685E2,2.0698529E2,4.9543192E2,8.05025E1,1.9702336E2,2.2747437E1,1.056656E2,2.660714E2,7.301926E1,0E0,6.1603962E1,1.6736282E2,0E0,6.82874E1,7.353702E1,0E0,4.2744263E1,1.02475624E2,3.657962E1,9.265094E1,0E0,4.3640617E1,1.2362162E2,3.701053E1,0E0,1.9515892E1,0E0,0E0,0E0,0E0,0E0,0E0,0E0,0E0,0E0,0E0,0E0,0E0,0E0,0E0,0E0,0E0,0E0,0E0],"parents":[2147483647,0,0,1,1,2,2,3,3,4,4,5,5,6,6,7,7,8,8,9,9,11,11,12,12,14,14,15,15,17,17,18,18,19,19,20,20,22,22,23,23,24,24,26,26],"right_children":[2,4,6,8,10,12,14,16,18,20,-1,22,24,-1,26,28,-1,30,32,34,36,-1,38,40,42,-1,44,-1,-1,-1,-1,-1,-1,-1,-1,-1,-1,-1,-1,-1,-1,-1,-1,-1,-1],"split_conditions":[2.4E1,3.4E1,2.1E1,2.7E1,5.9E1,7.5E5,5.7E1,6.7E5,2.9E1,1.000519E6,-7.992474E-2,6.29E2,1.000759E6,-8.163066E-2,1.017E3,2E1,-8.0008924E-2,2.8E1,1.003891E6,6.8792544E-2,1.1E1,-7.933219E-2,5.6463057E-1,4.2E1,5.94E2,-8.107891E-2,2.6E1,3.118197E-2,-8.0518425E-2,-1.2534498E-2,-8.1328034E-2,1.7401887E-2,-9.350371E-2,-6.3817683E-3,6.2092867E-2,-2.8053354E-4,3.3505913E-2,6.422367E-2,-7.596033E-2,-8.019804E-2,6.0262915E-2,-2.6248593E-2,-8.38924E-2,7.8879796E-2,-6.0201008E-2],"split_indices":[3,6,8,8,6,4,8,4,6,0,0,1,0,0,1,5,0,8,0,11,8,0,11,6,1,0,3,0,0,0,0,0,0,0,0,0,0,0,0,0,0,0,0,0,0],"split_type":[0,0,0,0,0,0,0,0,0,0,0,0,0,0,0,0,0,0,0,0,0,0,0,0,0,0,0,0,0,0,0,0,0,0,0,0,0,0,0,0,0,0,0,0,0],"sum_hessian":[3.2602825E3,2.5165938E3,7.436887E2,1.1695735E3,1.3470203E3,3.3849887E2,4.0518982E2,7.243481E2,4.4522543E2,1.3312968E3,1.5723623E1,8.74519E1,2.5104697E2,3.5994263E2,4.5247196E1,7.022571E2,2.2091022E1,2.567035E2,1.8852194E2,2.3577641E2,1.0955203E3,8.804859E0,7.864704E1,7.182915E1,1.792178E2,3.2100742E1,1.3146457E1,6.8813116E2,1.4125906E1,2.5456263E1,2.3124722E2,1.6571872E2,2.2803217E1,2.1250048E1,2.1452637E2,2.6878333E2,8.2673694E2,7.34755E1,5.1715374E0,2.1595379E1,5.0233772E1,3.5957737E1,1.4326007E2,1.0727688E1,2.418769E0],"tree_param":{"num_deleted":"0","num_feature":"20","num_nodes":"45","size_leaf_vector":"1"}},{"base_weights":[-1.8051186E-3,3.6910906E-1,-8.381857E-1,7.947857E-2,6.204884E-1,-1.497273E0,-4.2202663E-1,4.8058355E-1,-8.280422E-1,6.4224344E-1,-7.558428E-2,1.3715826E-1,-7.94711E-2,1.2979535E-2,-1.1817529E0,6.077982E-1,-4.8610738E-1,-7.873742E-2,6.9692796E-3,-8.028545E-2,6.6186416E-1,7.3140085E-2,-7.336895E-2,3.6958814E-1,-9.035914E-1,-5.8374036E-2,-8.153537E-2,3.2996528E-2,-9.902095E-2,1.3126807E-2,-9.406718E-2,-9.044428E-2,1.5419163E-2,3.6482442E-2,-1.6968626E-3,2.6718814E-2,-8.105489E-2,1.8634832E-2,-7.9683416E-2,3.5911135E-2,-8.846209E-2],"categories":[],"categories_nodes":[],"categories_segments":[],"categories_sizes":[],"default_left":[0,0,0,0,0,0,0,0,0,0,0,0,0,0,0,0,0,0,0,0,0,0,0,0,0,0,0,0,0,0,0,0,0,0,0,0,0,0,0,0,0],"id":6,"left_children":[1,3,5,7,9,11,13,15,17,19,-1,21,-1,23,25,27,29,-1,31,-1,33,-1,-1,35,37,39,-1,-1,-1,-1,-1,-1,-1,-1,-1,-1,-1,-1,-1,-1,-1],"loss_changes":[1.0046337E3,1.6329175E2,2.7226105E2,3.8027075E2,5.6675323E1,5.815497E1,2.0202316E2,8.937314E1,1.9967812E2,5.3526367E1,0E0,4.7774117E1,0E0,1.2770297E2,1.1215576E2,8.773631E1,8.906247E1,0E0,8.384547E1,0E0,5.567383E1,0E0,0E0,9.312519E1,9.6978546E1,8.708539E1,0E0,0E0,0E0,0E0,0E0,0E0,0E0,0E0,0E0,0E0,0E0,0E0,0E0,0E0,0E0],"parents":[2147483647,0,0,1,1,2,2,3,3,4,4,5,5,6,6,7,7,8,8,9,9,11,11,13,13,14,14,15,15,16,16,18,18,20,20,23,23,24,24,25,25],"right_children":[2,4,6,8,10,12,14,16,18,20,-1,22,-1,24,26,28,30,-1,32,-1,34,-1,-1,36,38,40,-1,-1,-1,-1,-1,-1,-1,-1,-1,-1,-1,-1,-1,-1,-1],"split_conditions":[2E1,3.4E1,3E1,2.8E1,5.9E1,5.4888513E-2,8.38E2,1.4E1,2.9E1,3E0,-7.558428E-2,5.8E5,-7.94711E-2,3.2E1,7E5,2E1,1.002327E6,-7.873742E-2,1.001273E6,-8.028545E-2,1.8E1,7.3140085E-2,-7.336895E-2,5.4E1,6.570477E-2,8.38E2,-8.153537E-2,3.2996528E-2,-9.902095E-2,1.3126807E-2,-9.406718E-2,-9.044428E-2,1.5419163E-2,3.6482442E-2,-1.6968626E-3,2.6718814E-2,-8.105489E-2,1.8634832E-2,-7.9683416E-2,3.5911135E-2,-8.846209E-2],"split_indices":[3,6,6,8,6,11,2,3,6,7,0,4,0,3,4,6,0,0,0,0,7,0,0,6,11,1,0,0,0,0,0,0,0,0,0,0,0,0,0,0,0],"split_type":[0,0,0,0,0,0,0,0,0,0,0,0,0,0,0,0,0,0,0,0,0,0,0,0,0,0,0,0,0,0,0,0,0,0,0,0,0,0,0,0,0],"sum_hessian":[3.2364016E3,2.2424768E3,9.9392456E2,1.0425748E3,1.1999021E3,3.836792E2,6.102454E2,7.2334296E2,3.1923184E2,1.1884746E3,1.1427465E1,2.045119E1,3.63228E2,3.88678E2,2.215674E2,6.395506E2,8.379235E1,1.680594E2,1.5117244E2,9.584117E0,1.1788905E3,1.1247236E1,9.203955E0,2.8024167E2,1.0843634E2,6.358766E1,1.5797974E2,6.276533E2,1.1897279E1,5.506038E1,2.8731976E1,2.080889E1,1.3036356E2,1.0741943E3,1.0469618E2,2.5949252E2,2.0749123E1,3.8216095E1,7.0220245E1,4.413439E1,1.9453272E1],"tree_param":{"num_deleted":"0","num_feature":"20","num_nodes":"41","size_leaf_vector":"1"}},{"base_weights":[-2.1305191E-3,2.8556523E-1,-9.963304E-1,-2.4144321E-3,5.3408295E-1,-4.4772512E-1,-1.4597145E0,4.6157172E-1,-7.685665E-1,2.4405044E-1,7.109333E-1,7.554117E-1,-8.734052E-1,-7.7066116E-2,-7.973614E-1,5.2502984E-1,-7.656842E-2,-1.4007059E0,6.5399505E-2,5.348094E-1,-6.54295E-1,7.549327E-1,-8.718995E-2,-7.666957E-2,1.0272169E0,3.438412E-1,-1.366013E0,-7.7068664E-2,9.783326E-1,2.8124783E-2,-1.0079236E-1,-1.1558186E-2,-7.665024E-2,1.811722E-2,-8.308073E-2,-9.733378E-2,3.1636592E-2,-7.127292E-2,3.0332485E-2,-7.573984E-2,3.8829163E-2,6.040712E-2,-8.183218E-2,-7.604675E-2,5.7144094E-2,-2.351427E-2,-7.9510994E-2,7.543134E-2,-5.6812115E-2],"categories":[],"categories_nodes":[],"categories_segments":[],"categories_sizes":[],"default_left":[0,0,0,0,0,0,0,0,0,0,0,0,0,0,0,0,0,0,0,0,0,0,0,0,0,0,0,0,0,0,0,0,0,0,0,0,0,0,0,0,0,0,0,0,0,0,0,0,0],"id":7,"left_children":[1,3,5,7,9,11,13,15,17,19,21,23,25,-1,27,29,-1,31,33,35,37,39,-1,-1,41,43,45,-1,47,-1,-1,-1,-1,-1,-1,-1,-1,-1,-1,-1,-1,-1,-1,-1,-1,-1,-1,-1,-1],"loss_changes":[9.1906586E2,1.783544E2,1.8267126E2,4.110745E2,6.844006E1,1.7051407E2,1.9878296E1,9.1888596E1,2.3003018E2,1.3310004E2,9.101245E1,5.582942E1,1.4764066E2,0E0,6.083532E1,6.7650925E1,0E0,3.804135E1,9.753486E1,9.4664116E1,1.2214299E2,4.1302002E1,0E0,0E0,3.983616E1,1.0828971E2,3.4382782E1,0E0,1.726896E1,0E0,0E0,0E0,0E0,0E0,0E0,0E0,0E0,0E0,0E0,0E0,0E0,0E0,0E0,0E0,0E0,0E0,0E0,0E0,0E0],"parents":[2147483647,0,0,1,1,2,2,3,3,4,4,5,5,6,6,7,7,8,8,9,9,10,10,11,11,12,12,14,14,15,15,17,17,18,18,19,19,20,20,21,21,24,24,25,25,26,26,28,28],"right_children":[2,4,6,8,10,12,14,16,18,20,22,24,26,-1,28,30,-1,32,34,36,38,40,-1,-1,42,44,46,-1,48,-1,-1,-1,-1,-1,-1,-1,-1,-1,-1,-1,-1,-1,-1,-1,-1,-1,-1,-1,-1],"split_conditions":[2.4E1,3.4E1,2.1E1,2.7E1,3.7E1,7.5E5,5.7E1,6.7E5,2.9E1,1.003313E6,2E1,6.29E2,1.000759E6,-7.7066116E-2,1.017E3,8.3587176E-1,-7.656842E-2,2.8E1,5.6463057E-1,5.964234E-2,8.59E2,3E0,-8.718995E-2,-7.666957E-2,1.00382E6,4.2E1,5.94E2,-7.7068664E-2,2.6E1,2.8124783E-2,-1.0079236E-1,-1.1558186E-2,-7.665024E-2,1.811722E-2,-8.308073E-2,-9.733378E-2,3.1636592E-2,-7.127292E-2,3.0332485E-2,-7.573984E-2,3.8829163E-2,6.040712E-2,-8.183218E-2,-7.604675E-2,5.7144094E-2,-2.351427E-2,-7.9510994E-2,7.543134E-2,-5.6812115E-2],"split_indices":[3,6,8,8,8,4,8,4,6,0,5,1,0,0,1,11,0,8,11,11,1,5,0,0,0,6,1,0,3,0,0,0,0,0,0,0,0,0,0,0,0,0,0,0,0,0,0,0,0],"split_type":[0,0,0,0,0,0,0,0,0,0,0,0,0,0,0,0,0,0,0,0,0,0,0,0,0,0,0,0,0,0,0,0,0,0,0,0,0,0,0,0,0,0,0,0,0,0,0,0,0],"sum_hessian":[3.211218E3,2.4910774E3,7.201407E2,1.1543821E3,1.3366953E3,3.3064862E2,3.8949207E2,7.192174E2,4.351647E2,5.072278E2,8.2946747E2,8.6210304E1,2.4443831E2,3.4558582E2,4.3906265E1,6.97737E2,2.14804E1,2.4714853E2,1.8801617E2,3.8350656E2,1.2372125E2,8.1554193E2,1.3925562E1,8.658422E0,7.755188E1,7.0509514E1,1.739288E2,3.1034737E1,1.2871528E1,6.883655E2,9.371491E0,2.5395514E1,2.2175302E2,1.6110567E2,2.691051E1,1.3842377E1,3.6966418E2,7.66894E1,4.7031853E1,7.054174E0,8.0848773E2,7.313138E1,4.420503E0,2.0879091E1,4.9630424E1,3.5440025E1,1.3848877E2,1.0519899E1,2.351628E0],"tree_param":{"num_deleted":"0","num_feature":"20","num_nodes":"49","size_leaf_vector":"1"}},{"base_weights":[-2.4880043E-3,2.7265072E-1,-9.663509E-1,-2.746246E-3,5.0968516E-1,-4.327153E-1,-1.420962E0,4.3990391E-1,-7.40937E-1,5.570989E-1,-5.2742755E-1,7.2406006E-1,-8.4455913E-1,-7.5045966E-2,-7.742621E-1,6.411679E-1,-1.7352477E-1,-1.3609805E0,6.1884418E-2,6.48421E-1,3.560058E-2,6.6461504E-1,-9.26424E-2,-8.126712E-2,9.8442984E-1,3.3059752E-1,-1.3224256E0,-7.491591E-2,9.4569373E-1,-9.542923E-2,3.4501348E-2,3.0855263E-2,-5.1662404E-2,-1.1004637E-2,-7.465916E-2,1.6217131E-2,-8.948315E-2,3.594965E-2,-2.9162655E-2,-1.0495944E-1,1.2963173E-2,-8.080801E-2,6.855345E-2,6.0606997E-2,-7.92247E-2,-7.392011E-2,5.488321E-2,-1.8417308E-2,-7.689671E-2,7.315779E-2,-5.538234E-2],"categories":[],"categories_nodes":[],"categories_segments":[],"categories_sizes":[],"default_left":[0,0,0,0,0,0,0,0,0,0,0,0,0,0,0,0,0,0,0,0,0,0,0,0,0,0,0,0,0,0,0,0,0,0,0,0,0,0,0,0,0,0,0,0,0,0,0,0,0,0,0],"id":8,"left_children":[1,3,5,7,9,11,13,15,17,19,21,23,25,-1,27,29,31,33,35,37,39,41,-1,-1,43,45,47,-1,49,-1,-1,-1,-1,-1,-1,-1,-1,-1,-1,-1,-1,-1,-1,-1,-1,-1,-1,-1,-1,-1,-1],"loss_changes":[8.4450366E2,1.617162E2,1.7093835E2,3.7509256E2,6.5762726E1,1.5627461E2,1.856012E1,8.870822E1,2.1428358E2,6.063443E1,9.400628E1,5.4406155E1,1.3600891E2,0E0,5.6254555E1,6.865698E1,1.2167422E2,3.62977E1,9.216879E1,9.462579E1,9.167427E1,5.3214626E1,0E0,0E0,4.7744446E1,9.957539E1,3.4763123E1,0E0,1.6133135E1,0E0,0E0,0E0,0E0,0E0,0E0,0E0,0E0,0E0,0E0,0E0,0E0,0E0,0E0,0E0,0E0,0E0,0E0,0E0,0E0,0E0,0E0],"parents":[2147483647,0,0,1,1,2,2,3,3,4,4,5,5,6,6,7,7,8,8,9,9,10,10,11,11,12,12,14,14,15,15,16,16,17,17,18,18,19,19,20,20,21,21,24,24,25,25,26,26,28,28],"right_children":[2,4,6,8,10,12,14,16,18,20,22,24,26,-1,28,30,32,34,36,38,40,42,-1,-1,44,46,48,-1,50,-1,-1,-1,-1,-1,-1,-1,-1,-1,-1,-1,-1,-1,-1,-1,-1,-1,-1,-1,-1,-1,-1],"split_conditions":[2.4E1,3.4E1,2.1E1,2.7E1,5.8E1,7.5E5,5.7E1,4.1E5,2.9E1,8.63E2,3E5,1.00179E6,1.000759E6,-7.5045966E-2,1.017E3,5.7538036E-2,1.3839191E-1,2.8E1,1.003891E6,1.8E1,8.44E2,2.7E5,-9.26424E-2,-8.126712E-2,1.00382E6,4.2E1,6.413618E-2,-7.491591E-2,2.6E1,-9.542923E-2,3.4501348E-2,3.0855263E-2,-5.1662404E-2,-1.1004637E-2,-7.465916E-2,1.6217131E-2,-8.948315E-2,3.594965E-2,-2.9162655E-2,-1.0495944E-1,1.2963173E-2,-8.080801E-2,6.855345E-2,6.0606997E-2,-7.92247E-2,-7.392011E-2,5.488321E-2,-1.8417308E-2,-7.689671E-2,7.315779E-2,-5.538234E-2],"split_indices":[3,6,8,8,6,4,8,4,6,2,4,0,0,0,1,11,11,8,0,5,1,4,0,0,0,6,11,0,3,0,0,0,0,0,0,0,0,0,0,0,0,0,0,0,0,0,0,0,0,0,0],"split_type":[0,0,0,0,0,0,0,0,0,0,0,0,0,0,0,0,0,0,0,0,0,0,0,0,0,0,0,0,0,0,0,0,0,0,0,0,0,0,0,0,0,0,0,0,0,0,0,0,0,0,0],"sum_hessian":[3.1824573E3,2.4763032E3,7.061541E2,1.1459161E3,1.3303871E3,3.2574133E2,3.8041275E2,7.166105E2,4.2930563E2,1.2726672E3,5.771983E1,8.5324936E1,2.4041638E2,3.373787E2,4.3034073E1,5.3954297E2,1.7706752E2,2.4183434E2,1.8747128E2,1.0828082E3,1.89859E2,3.0651432E1,2.70684E1,7.9896092E0,7.733533E1,6.95902E1,1.7082619E2,3.0375605E1,1.2658469E1,9.42881E0,5.3011414E2,9.238731E1,8.468022E1,2.5389742E1,2.164446E2,1.6491876E2,2.2552528E1,1.0245219E3,5.8286446E1,1.7209967E1,1.7264903E2,6.9442663E0,2.3707165E1,7.1523605E1,5.811722E0,2.0445509E1,4.914469E1,3.1975672E1,1.3885051E2,1.0340091E1,2.3183782E0],"tree_param":{"num_deleted":"0","num_feature":"20","num_nodes":"51","size_leaf_vector":"1"}},{"base_weights":[-2.7949524E-3,3.2291687E-1,-7.6118165E-1,6.811552E-2,5.4287076E-1,-1.3815167E0,-3.8190416E-1,4.1650072E-1,-7.440431E-1,9.936717E-1,4.483008E-1,1.6633078E-1,-7.3579796E-2,2.2597939E-2,-1.1025172E0,-9.265337E-2,4.6541062E-1,-7.273867E-2,-3.181691E-4,1.05322E0,-9.034508E-2,-1.002826E0,5.0859326E-1,-6.8008944E-2,6.940325E-2,1.931049E-1,-7.508656E-2,-8.9967266E-2,-7.620346E-2,2.5760913E-2,-8.046776E-2,-8.734687E-2,1.4412204E-2,5.835342E-3,5.717E-2,3.5768095E-2,-1.0169599E-1,2.7967134E-2,-3.8153555E-2,1.7156867E-2,-8.103817E-2,3.2130588E-2,-8.483209E-2],"categories":[],"categories_nodes":[],"categories_segments":[],"categories_sizes":[],"default_left":[0,0,0,0,0,0,0,0,0,0,0,0,0,0,0,0,0,0,0,0,0,0,0,0,0,0,0,0,0,0,0,0,0,0,0,0,0,0,0,0,0,0,0],"id":9,"left_children":[1,3,5,7,9,11,13,15,17,19,21,23,-1,25,27,-1,29,-1,31,33,-1,35,37,-1,-1,39,-1,41,-1,-1,-1,-1,-1,-1,-1,-1,-1,-1,-1,-1,-1,-1,-1],"loss_changes":[7.793046E2,1.2365445E2,2.224856E2,2.8994687E2,5.004663E1,5.0336243E1,1.7188857E2,8.045298E1,1.6262022E2,3.6016174E1,8.632327E1,4.0411877E1,0E0,9.8693954E1,9.035138E1,0E0,7.344328E1,0E0,7.677825E1,1.6835678E1,0E0,7.1367035E1,6.1242523E1,0E0,0E0,9.3466125E1,0E0,7.5687645E1,0E0,0E0,0E0,0E0,0E0,0E0,0E0,0E0,0E0,0E0,0E0,0E0,0E0,0E0,0E0],"parents":[2147483647,0,0,1,1,2,2,3,3,4,4,5,5,6,6,7,7,8,8,9,9,10,10,11,11,13,13,14,14,16,16,18,18,19,19,21,21,22,22,25,25,27,27],"right_children":[2,4,6,8,10,12,14,16,18,20,22,24,-1,26,28,-1,30,-1,32,34,-1,36,38,-1,-1,40,-1,42,-1,-1,-1,-1,-1,-1,-1,-1,-1,-1,-1,-1,-1,-1,-1],"split_conditions":[2E1,3.4E1,3E1,2.8E1,1.000519E6,5.4888513E-2,8.38E2,5.7538036E-2,2.9E1,8.3E5,2E0,6.5E1,-7.3579796E-2,5.4E1,7E5,-9.265337E-2,2E1,-7.273867E-2,1.001273E6,6.8792544E-2,-9.034508E-2,2.3E5,5.8E1,-6.8008944E-2,6.940325E-2,1.003957E6,-7.508656E-2,8.38E2,-7.620346E-2,2.5760913E-2,-8.046776E-2,-8.734687E-2,1.4412204E-2,5.835342E-3,5.717E-2,3.5768095E-2,-1.0169599E-1,2.7967134E-2,-3.8153555E-2,1.7156867E-2,-8.103817E-2,3.2130588E-2,-8.483209E-2],"split_indices":[3,6,6,8,0,11,2,11,6,4,8,10,0,6,4,0,5,0,0,11,0,4,6,0,0,0,0,1,0,0,0,0,0,0,0,0,0,0,0,0,0,0,0],"split_type":[0,0,0,0,0,0,0,0,0,0,0,0,0,0,0,0,0,0,0,0,0,0,0,0,0,0,0,0,0,0,0,0,0,0,0,0,0,0,0,0,0,0,0],"sum_hessian":[3.1528862E3,2.2060195E3,9.4686676E2,1.02265466E3,1.1833649E3,3.5826184E2,5.886049E2,7.1600354E2,3.0665112E2,2.0355258E2,9.798123E2,1.965635E1,3.3860547E2,3.7760974E2,2.1099521E2,1.4326432E1,7.016771E2,1.5631491E2,1.5033621E2,1.9992552E2,3.6270685E0,3.8462364E1,9.413499E2,8.687872E0,1.0968478E1,3.4040622E2,3.7203518E1,6.2378372E1,1.4861684E2,6.859613E2,1.5715786E1,2.0599138E1,1.2973708E2,1.7762045E1,1.8216347E2,1.4539813E1,2.3922552E1,9.05763E2,3.5586918E1,3.1514972E2,2.5256495E1,4.3255596E1,1.9122778E1],"tree_param":{"num_deleted":"0","num_feature":"20","num_nodes":"43","size_leaf_vector":"1"}},{"base_weights":[-3.0927183E-3,2.4952044E-1,-9.1252357E-1,-2.7787276E-3,4.653507E-1,-4.0089563E-1,-1.3574997E0,4.0068516E-1,-6.8964446E-1,9.232226E-1,3.6733815E-1,6.908181E-1,-7.957071E-1,-7.179651E-2,-7.3051846E-1,5.927368E-1,-1.8274385E-1,-1.2934762E0,5.831438E-2,-2.1607822E-1,1.0401319E0,-1.023794E-1,5.2475756E-1,-7.776218E-2,9.400584E-1,3.2664734E-1,-1.2590356E0,-7.1874894E-2,9.183177E-1,3.177498E-2,-1.018966E-1,2.8600087E-2,-4.9913414E-2,-1.0941409E-2,-7.122647E-2,1.573893E-2,-8.857971E-2,-9.68053E-2,6.630466E-2,5.3746838E-2,-7.958769E-2,1.6574822E-2,-5.353312E-2,2.8328588E-2,-8.378331E-2,5.773735E-2,-7.43309E-2,-7.105258E-2,5.2457746E-2,-1.642598E-2,-7.380528E-2,7.062496E-2,-5.2798677E-2],"categories":[],"categories_nodes":[],"categories_segments":[],"categories_sizes":[],"default_left":[0,0,0,0,0,0,0,0,0,0,0,0,0,0,0,0,0,0,0,0,0,0,0,0,0,0,0,0,0,0,0,0,0,0,0,0,0,0,0,0,0,0,0,0,0,0,0,0,0,0,0,0,0],"id":10,"left_children":[1,3,5,7,9,11,13,15,17,19,21,23,25,-1,27,29,31,33,35,37,39,41,43,-1,45,47,49,-1,51,-1,-1,-1,-1,-1,-1,-1,-1,-1,-1,-1,-1,-1,-1,-1,-1,-1,-1,-1,-1,-1,-1,-1,-1],"loss_changes":[7.1822095E2,1.3323357E2,1.5417932E2,3.1316275E2,5.8838623E1,1.3742136E2,1.6804565E1,7.987405E1,1.8893222E2,3.1105072E1,8.048984E1,4.8975857E1,1.21927734E2,0E0,5.074871E1,6.1571854E1,1.09557755E2,3.2279602E1,8.8666756E1,6.199712E1,2.0987686E1,1.1542133E2,7.5929825E1,0E0,4.1842896E1,8.871144E1,3.2964905E1,0E0,1.450221E1,0E0,0E0,0E0,0E0,0E0,0E0,0E0,0E0,0E0,0E0,0E0,0E0,0E0,0E0,0E0,0E0,0E0,0E0,0E0,0E0,0E0,0E0,0E0,0E0],"parents":[2147483647,0,0,1,1,2,2,3,3,4,4,5,5,6,6,7,7,8,8,9,9,10,10,11,11,12,12,14,14,15,15,16,16,17,17,18,18,19,19,20,20,21,21,22,22,24,24,25,25,26,26,28,28],"right_children":[2,4,6,8,10,12,14,16,18,20,22,24,26,-1,28,30,32,34,36,38,40,42,44,-1,46,48,50,-1,52,-1,-1,-1,-1,-1,-1,-1,-1,-1,-1,-1,-1,-1,-1,-1,-1,-1,-1,-1,-1,-1,-1,-1,-1],"split_conditions":[2.4E1,3.4E1,2.1E1,2.7E1,1.000519E6,7.5E5,5.7E1,4.1E5,2.9E1,6.8792544E-2,1.1E1,1.00179E6,1.000759E6,-7.179651E-2,1.017E3,1.004544E6,1.3839191E-1,2.8E1,1.5E1,1.000432E6,8.5429054E-1,5E0,5.8E1,-7.776218E-2,1.00382E6,4.2E1,6.413618E-2,-7.1874894E-2,2.6E1,3.177498E-2,-1.018966E-1,2.8600087E-2,-4.9913414E-2,-1.0941409E-2,-7.122647E-2,1.573893E-2,-8.857971E-2,-9.68053E-2,6.630466E-2,5.3746838E-2,-7.958769E-2,1.6574822E-2,-5.353312E-2,2.8328588E-2,-8.378331E-2,5.773735E-2,-7.43309E-2,-7.105258E-2,5.2457746E-2,-1.642598E-2,-7.380528E-2,7.062496E-2,-5.2798677E-2],"split_indices":[3,6,8,8,0,4,8,4,6,11,8,0,0,0,1,0,11,8,5,0,11,8,6,0,0,6,11,0,3,0,0,0,0,0,0,0,0,0,0,0,0,0,0,0,0,0,0,0,0,0,0,0,0],"split_type":[0,0,0,0,0,0,0,0,0,0,0,0,0,0,0,0,0,0,0,0,0,0,0,0,0,0,0,0,0,0,0,0,0,0,0,0,0,0,0,0,0,0,0,0,0,0,0,0,0,0,0,0,0],"sum_hessian":[3.1243218E3,2.445703E3,6.786188E2,1.1280422E3,1.3176608E3,3.165521E2,3.6206668E2,7.108857E2,4.1715656E2,2.308431E2,1.0868176E3,8.387507E1,2.3267703E2,3.206639E2,4.1402775E1,5.3481934E2,1.7606638E2,2.3041321E2,1.8674335E2,2.1404497E1,2.094386E2,2.728929E2,8.1392474E2,7.854379E0,7.602069E1,6.807324E1,1.6460379E2,2.9067526E1,1.233525E1,5.270109E2,7.808373E0,9.159568E1,8.4470695E1,2.533485E1,2.0507835E2,1.645144E2,2.2228943E1,9.998001E0,1.1406497E1,2.0728893E2,2.1496742E0,1.8890468E2,8.398825E1,7.99475E2,1.4449753E1,7.032332E1,5.697375E0,1.9627867E1,4.8445377E1,3.1610813E1,1.3299298E2,1.0093353E1,2.2418966E0],"tree_param":{"num_deleted":"0","num_feature":"20","num_nodes":"53","size_leaf_vector":"1"}},{"base_weights":[-3.365496E-3,2.384241E-1,-8.889692E-1,2.7623037E-1,-1.0921806E0,-3.8895217E-1,-1.3281873E0,6.4208496E-1,1.287629E-1,-8.217171E-2,7.561339E-1,6.640079E-1,-7.724902E-1,-7.027378E-2,-7.126735E-1,6.758908E-1,-9.477305E-2,-1.8734382E-1,3.5619095E-1,-6.9662996E-2,7.916473E-2,-7.3640786E-2,9.2045546E-1,3.149019E-1,-1.2242223E0,-7.020651E-2,8.911168E-1,2.4503088E-2,5.340857E-2,1.3319479E-2,-4.748731E-2,2.7989706E-2,-8.81021E-3,5.5284936E-2,-7.117575E-2,4.83137E-2,-7.74347E-2,-1.657222E-2,-7.2899334E-2,6.8776526E-2,-5.159544E-2],"categories":[],"categories_nodes":[],"categories_segments":[],"categories_sizes":[],"default_left":[0,0,0,0,0,0,0,0,0,0,0,0,0,0,0,0,0,0,0,0,0,0,0,0,0,0,0,0,0,0,0,0,0,0,0,0,0,0,0,0,0],"id":11,"left_children":[1,3,5,7,9,11,13,15,17,-1,19,21,23,-1,25,27,-1,29,31,-1,-1,-1,33,35,37,-1,39,-1,-1,-1,-1,-1,-1,-1,-1,-1,-1,-1,-1,-1,-1],"loss_changes":[6.6258777E2,1.2257878E2,1.4522821E2,1.2747778E2,6.987205E1,1.26413826E2,1.57855835E1,5.9526703E1,1.2130229E2,0E0,3.0934647E1,4.7262333E1,1.12861496E2,0E0,4.715708E1,4.8375275E1,0E0,2.4457195E2,1.0644677E2,0E0,0E0,0E0,3.431849E1,8.404147E1,3.3321365E1,0E0,1.3606254E1,0E0,0E0,0E0,0E0,0E0,0E0,0E0,0E0,0E0,0E0,0E0,0E0,0E0,0E0],"parents":[2147483647,0,0,1,1,2,2,3,3,4,4,5,5,6,6,7,7,8,8,10,10,11,11,12,12,14,14,15,15,17,17,18,18,22,22,23,23,24,24,26,26],"right_children":[2,4,6,8,10,12,14,16,18,-1,20,22,24,-1,26,28,-1,30,32,-1,-1,-1,34,36,38,-1,40,-1,-1,-1,-1,-1,-1,-1,-1,-1,-1,-1,-1,-1,-1],"split_conditions":[2.4E1,2E1,2.1E1,7E0,2.3E1,7.5E5,5.7E1,8.3587176E-1,3.2E1,-8.217171E-2,1E0,6.29E2,1.000759E6,-7.027378E-2,1.017E3,3E5,-9.477305E-2,2.8E1,1.003342E6,-6.9662996E-2,7.916473E-2,-7.3640786E-2,5.6463057E-1,6.14E2,5.94E2,-7.020651E-2,2.6E1,2.4503088E-2,5.340857E-2,1.3319479E-2,-4.748731E-2,2.7989706E-2,-8.81021E-3,5.5284936E-2,-7.117575E-2,4.83137E-2,-7.74347E-2,-1.657222E-2,-7.2899334E-2,6.8776526E-2,-5.159544E-2],"split_indices":[3,5,8,3,7,4,8,11,6,0,17,1,0,0,1,4,0,8,0,0,0,0,11,2,1,0,3,0,0,0,0,0,0,0,0,0,0,0,0,0,0],"split_type":[0,0,0,0,0,0,0,0,0,0,0,0,0,0,0,0,0,0,0,0,0,0,0,0,0,0,0,0,0,0,0,0,0,0,0,0,0,0,0,0,0],"sum_hessian":[3.0923381E3,2.429705E3,6.6263306E2,2.3633481E3,6.635703E1,3.1075137E2,3.5188165E2,6.779805E2,1.6853677E3,5.1198196E1,1.5158839E1,8.2773865E1,2.279775E2,3.1148596E2,4.0395718E1,6.69791E2,8.189483E0,7.052722E2,9.800954E2,4.022334E0,1.1136505E1,8.361272E0,7.44126E1,6.700016E1,1.6097734E2,2.831326E1,1.20824585E1,4.5601794E2,2.1377307E2,4.42547E2,2.6272522E2,7.0892914E2,2.711663E2,6.9452095E1,4.960499E0,5.0004036E1,1.6996126E1,3.39055E1,1.2707183E2,9.878701E0,2.2037575E0],"tree_param":{"num_deleted":"0","num_feature":"20","num_nodes":"41","size_leaf_vector":"1"}},{"base_weights":[-3.5155122E-3,3.028455E-1,-6.564486E-1,4.1484857E-1,-7.082652E-2,-1.3111831E0,-2.8368548E-1,2.864971E-1,8.249499E-1,9.224303E-1,-4.4370493E-1,2.3090689E-1,-7.025776E-2,1.2944289E-1,-7.8119373E-1,1.159853E0,2.3139817E-1,8.969847E-1,-8.761096E-2,-9.197172E-2,1.0140717E0,-7.19591E-1,5.089461E-1,7.859277E-2,-6.411367E-2,2.930299E-1,-7.43034E-2,-5.5574797E-2,-1.4713268E0,6.421176E-2,-7.703355E-2,1.6137954E-2,-3.6292817E-2,2.1841621E-2,5.6276914E-2,5.451101E-2,-7.830912E-2,-6.562053E-2,1.1433703E-2,4.1614454E-2,-9.436654E-2,-7.6214448E-3,4.435283E-2,-4.246786E-2,4.0927354E-2,-9.3563646E-2,-7.026362E-2],"categories":[],"categories_nodes":[],"categories_segments":[],"categories_sizes":[],"default_left":[0,0,0,0,0,0,0,0,0,0,0,0,0,0,0,0,0,0,0,0,0,0,0,0,0,0,0,0,0,0,0,0,0,0,0,0,0,0,0,0,0,0,0,0,0,0,0],"id":12,"left_children":[1,3,5,7,9,11,13,15,17,19,21,23,-1,25,27,29,31,33,-1,-1,35,37,39,-1,-1,41,-1,43,45,-1,-1,-1,-1,-1,-1,-1,-1,-1,-1,-1,-1,-1,-1,-1,-1,-1,-1],"loss_changes":[6.132741E2,8.736502E1,2.3859152E2,8.428128E1,1.7895691E2,5.1759216E1,1.2859738E2,5.8653557E1,7.252774E1,3.5251236E1,9.2664314E1,4.512489E1,0E0,9.092711E1,1.4202151E2,2.6302803E1,1.0107396E2,3.8681885E1,0E0,0E0,2.6919327E1,1.5361589E2,6.3128826E1,0E0,0E0,8.263227E1,0E0,9.739657E1,1.2116089E0,0E0,0E0,0E0,0E0,0E0,0E0,0E0,0E0,0E0,0E0,0E0,0E0,0E0,0E0,0E0,0E0,0E0,0E0],"parents":[2147483647,0,0,1,1,2,2,3,3,4,4,5,5,6,6,7,7,8,8,9,9,10,10,11,11,13,13,14,14,15,15,16,16,17,17,20,20,21,21,22,22,25,25,27,27,28,28],"right_children":[2,4,6,8,10,12,14,16,18,20,22,24,-1,26,28,30,32,34,-1,-1,36,38,40,-1,-1,42,-1,44,46,-1,-1,-1,-1,-1,-1,-1,-1,-1,-1,-1,-1,-1,-1,-1,-1,-1,-1],"split_conditions":[6.4E5,8.57E2,3E1,8.44E2,2.1E5,1E0,6.18E2,1.000129E6,1.8E1,6E0,1.045E3,1.5E1,-7.025776E-2,5.4E1,8.5E5,4.7741562E-1,5.6E5,3.9205363E-1,-8.761096E-2,-9.197172E-2,7.316268E-1,1E0,5.575441E-1,7.859277E-2,-6.411367E-2,4.8E1,-7.43034E-2,3.7E1,2.4E1,6.421176E-2,-7.703355E-2,1.6137954E-2,-3.6292817E-2,2.1841621E-2,5.6276914E-2,5.451101E-2,-7.830912E-2,-6.562053E-2,1.1433703E-2,4.1614454E-2,-9.436654E-2,-7.6214448E-3,4.435283E-2,-4.246786E-2,4.0927354E-2,-9.3563646E-2,-7.026362E-2],"split_indices":[4,2,6,2,4,6,2,0,7,7,1,3,0,6,4,11,4,11,0,0,11,18,11,0,0,6,0,8,3,0,0,0,0,0,0,0,0,0,0,0,0,0,0,0,0,0,0],"split_type":[0,0,0,0,0,0,0,0,0,0,0,0,0,0,0,0,0,0,0,0,0,0,0,0,0,0,0,0,0,0,0,0,0,0,0,0,0,0,0,0,0,0,0,0,0,0,0],"sum_hessian":[3.0638672E3,2.085753E3,9.781144E2,1.604666E3,4.8108682E2,3.5393423E2,6.241802E2,1.2234541E3,3.8121194E2,1.3090749E2,3.5017932E2,2.024558E1,3.3368866E2,3.4141266E2,2.8276752E2,7.141572E1,1.1520383E3,3.714806E2,9.73135E0,3.5916343E0,1.2731586E2,2.717311E2,7.844822E1,1.0713091E1,9.53249E0,3.107633E2,3.064935E1,1.383667E2,1.4440083E2,6.8772606E1,2.6431165E0,1.0522717E3,9.976657E1,1.2424547E2,2.4723512E2,1.24227135E2,3.088721E0,1.6696617E2,1.0476495E2,6.969637E1,8.751845E0,1.7801431E2,1.3274898E2,7.253062E1,6.583608E1,1.6594612E1,1.2780621E2],"tree_param":{"num_deleted":"0","num_feature":"20","num_nodes":"47","size_leaf_vector":"1"}},{"base_weights":[-3.6525747E-3,2.1710077E-1,-8.409899E-1,2.5261405E-1,-1.0483854E0,-3.5412532E-1,-1.2801391E0,5.916225E-1,1.1625827E-1,-7.9143405E-2,7.2473025E-1,6.4746815E-1,-7.2711146E-1,-6.7795426E-2,-6.8339276E-1,6.238828E-1,-8.996819E-2,-1.796465E-1,3.2814917E-1,-6.694468E-2,7.569661E-2,-7.4622296E-2,8.8537246E-1,3.1289262E-1,-1.1681437E0,-6.7806885E-2,8.594889E-1,2.2174185E-2,5.035283E-2,1.2304836E-2,-4.5386583E-2,2.6107568E-2,-8.766442E-3,5.4522395E-2,-7.1362324E-2,-6.7801625E-2,4.898597E-2,-7.136722E-2,-1.5429476E-2,6.611391E-2,-4.9053516E-2],"categories":[],"categories_nodes":[],"categories_segments":[],"categories_sizes":[],"default_left":[0,0,0,0,0,0,0,0,0,0,0,0,0,0,0,0,0,0,0,0,0,0,0,0,0,0,0,0,0,0,0,0,0,0,0,0,0,0,0,0,0],"id":13,"left_children":[1,3,5,7,9,11,13,15,17,-1,19,21,23,-1,25,27,-1,29,31,-1,-1,-1,33,35,37,-1,39,-1,-1,-1,-1,-1,-1,-1,-1,-1,-1,-1,-1,-1,-1],"loss_changes":[5.621039E2,1.08417496E2,1.3519446E2,1.08174866E2,6.3586044E1,1.13388535E2,1.4138367E1,5.2913498E1,1.04841835E2,0E0,2.7996994E1,4.334481E1,1.0160104E2,0E0,4.2221977E1,4.5399628E1,0E0,2.1658566E2,9.524705E1,0E0,0E0,0E0,3.7085285E1,7.5350876E1,3.413736E1,0E0,1.2048825E1,0E0,0E0,0E0,0E0,0E0,0E0,0E0,0E0,0E0,0E0,0E0,0E0,0E0,0E0],"parents":[2147483647,0,0,1,1,2,2,3,3,4,4,5,5,6,6,7,7,8,8,10,10,11,11,12,12,14,14,15,15,17,17,18,18,22,22,23,23,24,24,26,26],"right_children":[2,4,6,8,10,12,14,16,18,-1,20,22,24,-1,26,28,-1,30,32,-1,-1,-1,34,36,38,-1,40,-1,-1,-1,-1,-1,-1,-1,-1,-1,-1,-1,-1,-1,-1],"split_conditions":[2.4E1,2E1,2.1E1,7E0,2.3E1,7.5E5,5.7E1,8.3587176E-1,3.2E1,-7.9143405E-2,1E0,1.00179E6,1.000759E6,-6.7795426E-2,1.017E3,3E5,-8.996819E-2,2.8E1,1.003342E6,-6.694468E-2,7.569661E-2,-7.4622296E-2,1.00382E6,4.2E1,1.57E6,-6.7806885E-2,2.6E1,2.2174185E-2,5.035283E-2,1.2304836E-2,-4.5386583E-2,2.6107568E-2,-8.766442E-3,5.4522395E-2,-7.1362324E-2,-6.7801625E-2,4.898597E-2,-7.136722E-2,-1.5429476E-2,6.611391E-2,-4.9053516E-2],"split_indices":[3,5,8,3,7,4,8,11,6,0,17,0,0,0,1,4,0,8,0,0,0,0,0,6,4,0,3,0,0,0,0,0,0,0,0,0,0,0,0,0,0],"split_type":[0,0,0,0,0,0,0,0,0,0,0,0,0,0,0,0,0,0,0,0,0,0,0,0,0,0,0,0,0,0,0,0,0,0,0,0,0,0,0,0,0],"sum_hessian":[3.038959E3,2.405516E3,6.33443E2,2.3406313E3,6.488468E1,3.012582E2,3.321848E2,6.704405E2,1.6701909E3,4.9938625E1,1.4946056E1,8.154541E1,2.1971281E2,2.9363013E2,3.8554676E1,6.622442E2,8.196248E0,6.969939E2,9.73197E2,3.9419734E0,1.1004083E1,7.6311393E0,7.391427E1,6.5513985E1,1.5419882E2,2.6932358E1,1.1622317E1,4.5172736E2,2.1051685E2,4.4023264E2,2.567613E2,7.024782E2,2.7071884E2,6.837911E1,5.535157E0,1.8408321E1,4.7105663E1,1.179655E2,3.6233326E1,9.512171E0,2.1101463E0],"tree_param":{"num_deleted":"0","num_feature":"20","num_nodes":"41","size_leaf_vector":"1"}},{"base_weights":[-3.788527E-3,2.7771902E-1,-6.202895E-1,3.8287413E-1,-7.271345E-2,-1.2660229E0,-2.6391447E-1,2.6003385E-1,7.774389E-1,8.700324E-1,-4.2407212E-1,2.4502404E-1,-6.8017766E-2,1.3091187E-1,-7.4855244E-1,1.1036083E0,2.0743403E-1,8.461625E-1,-8.415121E-2,-8.788008E-2,9.5916206E-1,-6.873835E-1,4.8692957E-1,7.562752E-2,-6.188512E-2,2.8467888E-1,-7.205015E-2,-6.659655E-2,-1.4218563E0,6.1218273E-2,-7.495678E-2,1.4664835E-2,-3.463E-2,2.0060254E-2,5.343017E-2,5.16133E-2,-7.4570164E-2,-6.264677E-2,1.0843487E-2,3.9942835E-2,-9.085762E-2,-6.6695362E-3,4.2223893E-2,-4.1013632E-2,3.8299736E-2,-8.987743E-2,-6.7808144E-2],"categories":[],"categories_nodes":[],"categories_segments":[],"categories_sizes":[],"default_left":[0,0,0,0,0,0,0,0,0,0,0,0,0,0,0,0,0,0,0,0,0,0,0,0,0,0,0,0,0,0,0,0,0,0,0,0,0,0,0,0,0,0,0,0,0,0,0],"id":14,"left_children":[1,3,5,7,9,11,13,15,17,19,21,23,-1,25,27,29,31,33,-1,-1,35,37,39,-1,-1,41,-1,43,45,-1,-1,-1,-1,-1,-1,-1,-1,-1,-1,-1,-1,-1,-1,-1,-1,-1,-1],"loss_changes":[5.226328E2,7.6211685E1,2.169071E2,7.68817E1,1.5871097E2,4.814911E1,1.1673724E2,5.365226E1,6.518567E1,3.215876E1,8.403029E1,4.0510036E1,0E0,8.180783E1,1.2562775E2,2.4163658E1,8.8631485E1,3.5945343E1,0E0,0E0,2.4200287E1,1.3890782E2,5.8100067E1,0E0,0E0,7.2098816E1,0E0,8.664589E1,9.614258E-1,0E0,0E0,0E0,0E0,0E0,0E0,0E0,0E0,0E0,0E0,0E0,0E0,0E0,0E0,0E0,0E0,0E0,0E0],"parents":[2147483647,0,0,1,1,2,2,3,3,4,4,5,5,6,6,7,7,8,8,9,9,10,10,11,11,13,13,14,14,15,15,16,16,17,17,20,20,21,21,22,22,25,25,27,27,28,28],"right_children":[2,4,6,8,10,12,14,16,18,20,22,24,-1,26,28,30,32,34,-1,-1,36,38,40,-1,-1,42,-1,44,46,-1,-1,-1,-1,-1,-1,-1,-1,-1,-1,-1,-1,-1,-1,-1,-1,-1,-1],"split_conditions":[6.4E5,8.57E2,3E1,8.44E2,2.1E5,1E0,6.18E2,1.000129E6,1.8E1,6E0,1.045E3,1.5E1,-6.8017766E-2,5.4E1,8.5E5,4.7741562E-1,5.6E5,3.9205363E-1,-8.415121E-2,-8.788008E-2,7.316268E-1,1E0,5.575441E-1,7.562752E-2,-6.188512E-2,4.8E1,-7.205015E-2,3.7E1,2.4E1,6.1218273E-2,-7.495678E-2,1.4664835E-2,-3.463E-2,2.0060254E-2,5.343017E-2,5.16133E-2,-7.4570164E-2,-6.264677E-2,1.0843487E-2,3.9942835E-2,-9.085762E-2,-6.6695362E-3,4.2223893E-2,-4.1013632E-2,3.8299736E-2,-8.987743E-2,-6.7808144E-2],"split_indices":[4,2,6,2,4,6,2,0,7,7,1,3,0,6,4,11,4,11,0,0,11,18,11,0,0,6,0,8,3,0,0,0,0,0,0,0,0,0,0,0,0,0,0,0,0,0,0],"split_type":[0,0,0,0,0,0,0,0,0,0,0,0,0,0,0,0,0,0,0,0,0,0,0,0,0,0,0,0,0,0,0,0,0,0,0,0,0,0,0,0,0,0,0,0,0,0,0],"sum_hessian":[3.0094382E3,2.0664175E3,9.430209E2,1.5893921E3,4.770253E2,3.3445425E2,6.0856665E2,1.2133099E3,3.7608212E2,1.2911499E2,3.479103E2,1.9558722E1,3.1489554E2,3.3575922E2,2.7280743E2,7.004093E1,1.143269E3,3.665014E2,9.580721E0,3.6217709E0,1.2549322E2,2.7009024E2,7.782007E1,1.0533726E1,9.024996E0,3.0658728E2,2.917192E1,1.3607887E2,1.3672858E2,6.74415E1,2.5994372E0,1.044316E3,9.895296E1,1.2308774E2,2.4341367E2,1.2242001E2,3.0732079E0,1.6592764E2,1.04162605E2,6.911636E1,8.703703E0,1.7594762E2,1.3063966E2,7.143209E1,6.4646774E1,1.6426266E1,1.20302315E2],"tree_param":{"num_deleted":"0","num_feature":"20","num_nodes":"47","size_leaf_vector":"1"}},{"base_weights":[-3.9155767E-3,2.649283E-1,-6.010429E-1,2.9498857E-1,-8.957055E-1,-1.243585E0,-2.540024E-1,3.9170608E-1,-2.8530903E-2,-7.7605516E-2,1.2027518E0,2.3847307E-1,-6.685365E-2,1.24894716E-1,-7.247926E-1,2.745881E-1,7.615732E-1,8.668077E-1,-3.6624968E-1,7.641076E-2,-4.268958E-2,7.333566E-2,-6.0726024E-2,2.7148464E-1,-7.052755E-2,-6.3578814E-2,-1.3937021E0,1.8245673E-2,-9.771577E-3,4.055986E-2,-8.38584E-2,-8.40288E-2,4.7780834E-2,-3.115269E-2,2.5859132E-2,-8.4735796E-2,1.922365E-2,-3.9098483E-2,3.6721345E-2,-8.6409375E-2,-6.663119E-2],"categories":[],"categories_nodes":[],"categories_segments":[],"categories_sizes":[],"default_left":[0,0,0,0,0,0,0,0,0,0,0,0,0,0,0,0,0,0,0,0,0,0,0,0,0,0,0,0,0,0,0,0,0,0,0,0,0,0,0,0,0],"id":15,"left_children":[1,3,5,7,9,11,13,15,17,-1,19,21,-1,23,25,27,29,31,33,-1,-1,-1,-1,35,-1,37,39,-1,-1,-1,-1,-1,-1,-1,-1,-1,-1,-1,-1,-1,-1],"loss_changes":[4.7922952E2,7.208165E1,2.0634296E2,6.2817795E1,7.379046E1,4.531534E1,1.07656876E2,6.673222E1,1.4028543E2,0E0,1.0009331E1,3.768559E1,0E0,7.577785E1,1.1890852E2,4.9966545E1,4.6269333E1,3.0355171E1,7.6736206E1,0E0,0E0,0E0,0E0,6.876827E1,0E0,7.8740654E1,4.2840576E-1,0E0,0E0,0E0,0E0,0E0,0E0,0E0,0E0,0E0,0E0,0E0,0E0,0E0,0E0],"parents":[2147483647,0,0,1,1,2,2,3,3,4,4,5,5,6,6,7,7,8,8,10,10,11,11,13,13,14,14,15,15,16,16,17,17,18,18,23,23,25,25,26,26],"right_children":[2,4,6,8,10,12,14,16,18,-1,20,22,-1,24,26,28,30,32,34,-1,-1,-1,-1,36,-1,38,40,-1,-1,-1,-1,-1,-1,-1,-1,-1,-1,-1,-1,-1,-1],"split_conditions":[6.4E5,2E1,3E1,8.57E2,1.9E1,1E0,6.18E2,8.44E2,2.1E5,-7.7605516E-2,2E1,1.5E1,-6.685365E-2,5.4E1,8.5E5,6.35E2,1.8E1,6E0,1.045E3,7.641076E-2,-4.268958E-2,7.333566E-2,-6.0726024E-2,6.142915E-2,-7.052755E-2,3.7E1,2.4E1,1.8245673E-2,-9.771577E-3,4.055986E-2,-8.38584E-2,-8.40288E-2,4.7780834E-2,-3.115269E-2,2.5859132E-2,-8.4735796E-2,1.922365E-2,-3.9098483E-2,3.6721345E-2,-8.6409375E-2,-6.663119E-2],"split_indices":[4,5,6,2,3,6,2,2,4,0,3,3,0,6,4,2,7,7,1,0,0,0,0,11,0,8,3,0,0,0,0,0,0,0,0,0,0,0,0,0,0],"split_type":[0,0,0,0,0,0,0,0,0,0,0,0,0,0,0,0,0,0,0,0,0,0,0,0,0,0,0,0,0,0,0,0,0,0,0,0,0,0,0,0,0],"sum_hessian":[2.9832288E3,2.0574583E3,9.257705E2,2.0062427E3,5.1215553E1,3.2375604E2,6.0201447E2,1.5443438E3,4.6189886E2,3.9210674E1,1.2004881E1,1.9118647E1,3.046374E2,3.3396805E2,2.6804645E2,1.1742585E3,3.700852E2,1.2607915E2,3.358197E2,1.0586404E1,1.4184766E0,1.0355514E1,8.763134E0,3.0561407E2,2.835397E1,1.3534935E2,1.326971E2,9.851604E2,1.8909814E2,3.6335886E2,6.7263327E0,3.6435857E0,1.2243556E2,2.6041473E2,7.540499E1,1.5847094E1,2.8976697E2,7.123835E1,6.4111E1,1.627508E1,1.1642201E2],"tree_param":{"num_deleted":"0","num_feature":"20","num_nodes":"41","size_leaf_vector":"1"}},{"base_weights":[-4.04665E-3,1.8897808E-1,-7.7649885E-1,-2.591458E-2,3.711898E-1,-3.0314714E-1,-1.2233604E0,3.1167743E-1,-6.166834E-1,8.025372E-1,2.8068936E-1,6.40788E-1,-6.697445E-1,-6.48868E-2,-6.497172E-1,1.391752E-1,8.441585E-1,-1.2075256E0,5.7577442E-2,-2.6312873E-1,9.1428536E-1,-1.5279141E-1,4.2791468E-1,-7.001147E-2,8.809362E-1,3.1977752E-1,-1.100736E0,-6.525058E-2,8.274152E-1,1.4512992E-2,-6.538794E-2,4.7431096E-2,-9.113287E-2,-1.0360918E-2,-6.709275E-2,1.6405864E-2,-7.829597E-2,-9.357073E-2,6.0523953E-2,4.7389105E-2,-7.462347E-2,1.2211855E-2,-5.139575E-2,1.4296973E-2,4.910195E-2,5.2932948E-2,-6.823828E-2,4.4613834E-2,-7.133884E-2,-6.8874033E-3,-6.732293E-2,6.301988E-2,-4.5713034E-2],"categories":[],"categories_nodes":[],"categories_segments":[],"categories_sizes":[],"default_left":[0,0,0,0,0,0,0,0,0,0,0,0,0,0,0,0,0,0,0,0,0,0,0,0,0,0,0,0,0,0,0,0,0,0,0,0,0,0,0,0,0,0,0,0,0,0,0,0,0,0,0,0,0],"id":16,"left_children":[1,3,5,7,9,11,13,15,17,19,21,23,25,-1,27,29,31,33,35,37,39,41,43,-1,45,47,49,-1,51,-1,-1,-1,-1,-1,-1,-1,-1,-1,-1,-1,-1,-1,-1,-1,-1,-1,-1,-1,-1,-1,-1,-1,-1],"loss_changes":[4.4128632E2,9.272815E1,1.2478845E2,2.170742E2,4.979959E1,1.00320305E2,1.2128723E1,6.350785E1,1.5774246E2,2.664177E1,6.776299E1,4.1062843E1,8.923201E1,0E0,3.679588E1,1.1501491E2,4.8891678E1,2.8072235E1,8.2119934E1,5.3973236E1,1.7609177E1,9.394825E1,6.2035065E1,0E0,3.0707447E1,6.527309E1,3.4220108E1,0E0,1.016466E1,0E0,0E0,0E0,0E0,0E0,0E0,0E0,0E0,0E0,0E0,0E0,0E0,0E0,0E0,0E0,0E0,0E0,0E0,0E0,0E0,0E0,0E0,0E0,0E0],"parents":[2147483647,0,0,1,1,2,2,3,3,4,4,5,5,6,6,7,7,8,8,9,9,10,10,11,11,12,12,14,14,15,15,16,16,17,17,18,18,19,19,20,20,21,21,22,22,24,24,25,25,26,26,28,28],"right_children":[2,4,6,8,10,12,14,16,18,20,22,24,26,-1,28,30,32,34,36,38,40,42,44,-1,46,48,50,-1,52,-1,-1,-1,-1,-1,-1,-1,-1,-1,-1,-1,-1,-1,-1,-1,-1,-1,-1,-1,-1,-1,-1,-1,-1],"split_conditions":[2.4E1,3.4E1,2.1E1,2.7E1,1.000519E6,7.5E5,5.7E1,4.7333332E1,2.9E1,6.8792544E-2,1.1E1,6.29E2,1.000759E6,-6.48868E-2,1.017E3,1.4E1,1.004167E6,2.8E1,5.6463057E-1,1.000432E6,8.5429054E-1,5E0,7.5059277E-1,-7.001147E-2,5.6463057E-1,6.14E2,6.413618E-2,-6.525058E-2,2.6E1,1.4512992E-2,-6.538794E-2,4.7431096E-2,-9.113287E-2,-1.0360918E-2,-6.709275E-2,1.6405864E-2,-7.829597E-2,-9.357073E-2,6.0523953E-2,4.7389105E-2,-7.462347E-2,1.2211855E-2,-5.139575E-2,1.4296973E-2,4.910195E-2,5.2932948E-2,-6.823828E-2,4.4613834E-2,-7.133884E-2,-6.8874033E-3,-6.732293E-2,6.301988E-2,-4.5713034E-2],"split_indices":[3,6,8,8,0,4,8,10,6,11,8,1,0,0,1,5,0,8,11,0,11,8,11,0,11,2,11,0,3,0,0,0,0,0,0,0,0,0,0,0,0,0,0,0,0,0,0,0,0,0,0,0,0],"split_type":[0,0,0,0,0,0,0,0,0,0,0,0,0,0,0,0,0,0,0,0,0,0,0,0,0,0,0,0,0,0,0,0,0,0,0,0,0,0,0,0,0,0,0,0,0,0,0,0,0,0,0,0,0],"sum_hessian":[2.9576355E3,2.3669292E3,5.907063E2,1.0864613E3,1.2804679E3,2.876659E2,3.030404E2,6.9167773E2,3.947835E2,2.2069817E2,1.0597697E3,8.0260025E1,2.0740587E2,2.6714197E2,3.589844E1,5.23384E2,1.6829376E2,2.099859E2,1.847976E2,2.0817854E1,1.9988031E2,2.6867178E2,7.910979E2,7.940774E0,7.231925E1,6.3006355E1,1.443995E2,2.494757E1,1.0950869E1,4.7462448E2,4.8759506E1,1.6256993E2,5.7238364E0,2.5161203E1,1.8482469E2,1.5908546E2,2.5712141E1,9.824981E0,1.0992874E1,1.9773448E2,2.1458287E0,1.853174E2,8.33544E1,6.309538E2,1.6014407E2,6.7505516E1,4.8137407E0,4.7820503E1,1.5185854E1,2.967269E1,1.1472682E2,8.991823E0,1.9590455E0],"tree_param":{"num_deleted":"0","num_feature":"20","num_nodes":"53","size_leaf_vector":"1"}},{"base_weights":[-4.242446E-3,2.4368466E-1,-5.711978E-1,2.7193478E-1,-8.6565936E-1,-1.2065138E0,-2.4069105E-1,3.6444613E-1,-3.7465062E-2,-7.523777E-2,1.1609011E0,2.4927472E-1,-6.504661E-2,1.169074E-1,-6.943529E-1,2.5295946E-1,7.187407E-1,8.165869E-1,-3.560716E-1,7.361976E-2,-4.140428E-2,7.08564E-2,-5.8951944E-2,-2.562982E-1,7.146681E-1,-7.0424445E-2,-1.3533256E0,9.186753E-3,4.3240804E-2,3.8331296E-2,-8.092257E-2,-8.1439435E-2,4.517757E-2,-1.052261E-1,-1.1419178E-2,-8.3235554E-2,4.7261557E-3,5.4227002E-2,-5.1767547E-3,-3.7614383E-2,3.4451824E-2,-8.3445035E-2,-6.460684E-2],"categories":[],"categories_nodes":[],"categories_segments":[],"categories_sizes":[],"default_left":[0,0,0,0,0,0,0,0,0,0,0,0,0,0,0,0,0,0,0,0,0,0,0,0,0,0,0,0,0,0,0,0,0,0,0,0,0,0,0,0,0,0,0],"id":17,"left_children":[1,3,5,7,9,11,13,15,17,-1,19,21,-1,23,25,27,29,31,33,-1,-1,-1,-1,35,37,39,41,-1,-1,-1,-1,-1,-1,-1,-1,-1,-1,-1,-1,-1,-1,-1,-1],"loss_changes":[4.1139154E2,6.4050835E1,1.8668329E2,5.687268E1,6.754993E1,4.217404E1,9.5307236E1,6.022528E1,1.249569E2,0E0,9.115826E0,3.4003323E1,0E0,7.360183E1,1.0634533E2,4.9177536E1,4.2147293E1,2.800785E1,7.41696E1,0E0,0E0,0E0,0E0,1.0062934E2,3.847355E1,6.9927025E1,2.7371216E-1,0E0,0E0,0E0,0E0,0E0,0E0,0E0,0E0,0E0,0E0,0E0,0E0,0E0,0E0,0E0,0E0],"parents":[2147483647,0,0,1,1,2,2,3,3,4,4,5,5,6,6,7,7,8,8,10,10,11,11,13,13,14,14,15,15,16,16,17,17,18,18,23,23,24,24,25,25,26,26],"right_children":[2,4,6,8,10,12,14,16,18,-1,20,22,-1,24,26,28,30,32,34,-1,-1,-1,-1,36,38,40,42,-1,-1,-1,-1,-1,-1,-1,-1,-1,-1,-1,-1,-1,-1,-1,-1],"split_conditions":[6.4E5,2E1,3E1,8.57E2,1.9E1,1E0,6.18E2,8.44E2,2.1E5,-7.523777E-2,2E1,1.5E1,-6.504661E-2,1E0,8.5E5,1.004465E6,1.8E1,6E0,2.4E5,7.361976E-2,-4.140428E-2,7.08564E-2,-5.8951944E-2,1.04490176E-1,1.9145702E-1,3.7E1,2.4E1,9.186753E-3,4.3240804E-2,3.8331296E-2,-8.092257E-2,-8.1439435E-2,4.517757E-2,-1.052261E-1,-1.1419178E-2,-8.3235554E-2,4.7261557E-3,5.4227002E-2,-5.1767547E-3,-3.7614383E-2,3.4451824E-2,-8.3445035E-2,-6.460684E-2],"split_indices":[4,5,6,2,3,6,2,2,4,0,3,3,0,16,4,0,7,7,4,0,0,0,0,11,11,8,3,0,0,0,0,0,0,0,0,0,0,0,0,0,0,0,0],"split_type":[0,0,0,0,0,0,0,0,0,0,0,0,0,0,0,0,0,0,0,0,0,0,0,0,0,0,0,0,0,0,0,0,0,0,0,0,0,0,0,0,0,0,0],"sum_hessian":[2.9247385E3,2.0352869E3,8.8945184E2,1.9854802E3,4.9806614E1,3.0346548E2,5.859863E2,1.5283282E3,4.5715192E2,3.8061134E1,1.1745478E1,1.8383272E1,2.850822E2,3.2810233E2,2.57884E2,1.1638203E3,3.64508E2,1.2378165E2,3.3337027E2,1.0379652E1,1.3658253E0,1.0118095E1,8.265177E0,2.0234291E2,1.2575943E2,1.3303279E2,1.2485121E2,1.0466989E3,1.1712139E2,3.5784827E2,6.6597366E0,3.6419983E0,1.2013965E2,2.1635162E1,3.117351E2,3.9603775E1,1.6273914E2,8.638379E1,3.9375637E1,7.010247E1,6.2930317E1,1.6009508E1,1.08841705E2],"tree_param":{"num_deleted":"0","num_feature":"20","num_nodes":"43","size_leaf_vector":"1"}},{"base_weights":[-4.3369215E-3,1.7287736E-1,-7.413739E-1,-3.0757261E-2,3.4477997E-1,-2.7895287E-1,-1.1910503E0,2.8659397E-1,-5.93416E-1,7.6866704E-1,2.565904E-1,6.239233E-1,-6.385706E-1,-6.324466E-2,-6.281327E-1,4.6509108E-1,-1.9533485E-1,-1.1785082E0,5.250699E-2,-2.4814427E-1,8.755922E-1,-1.5201935E-1,3.9614016E-1,-7.137749E-2,8.494343E-1,-1.146716E0,1.6611236E-1,-6.3593745E-2,8.041264E-1,2.6001638E-2,-9.220059E-2,-1.1211721E-1,8.775957E-3,-9.720883E-3,-6.581098E-2,1.4774784E-2,-8.463236E-2,-8.8920824E-2,5.833785E-2,4.541606E-2,-7.1756385E-2,7.1451687E-3,-6.11628E-2,2.1709897E-2,-8.0111854E-2,5.2138608E-2,-6.7753226E-2,-6.793702E-2,-9.929482E-4,4.1994374E-2,-6.5407045E-2,6.107337E-2,-4.385176E-2],"categories":[],"categories_nodes":[],"categories_segments":[],"categories_sizes":[],"default_left":[0,0,0,0,0,0,0,0,0,0,0,0,0,0,0,0,0,0,0,0,0,0,0,0,0,0,0,0,0,0,0,0,0,0,0,0,0,0,0,0,0,0,0,0,0,0,0,0,0,0,0,0,0],"id":18,"left_children":[1,3,5,7,9,11,13,15,17,19,21,23,25,-1,27,29,31,33,35,37,39,41,43,-1,45,47,49,-1,51,-1,-1,-1,-1,-1,-1,-1,-1,-1,-1,-1,-1,-1,-1,-1,-1,-1,-1,-1,-1,-1,-1,-1,-1],"loss_changes":[3.7898813E2,8.1894615E1,1.1661975E2,1.9153046E2,4.722252E1,9.0854675E1,1.1045532E1,5.9092678E1,1.4624261E2,2.391446E1,6.0020706E1,3.8159176E1,8.185941E1,0E0,3.3309807E1,6.44938E1,1.4165643E2,2.7254608E1,7.8865074E1,4.8666225E1,1.6235596E1,8.497834E1,6.0330994E1,0E0,3.234737E1,2.9252563E1,7.875748E1,0E0,9.1198015E0,0E0,0E0,0E0,0E0,0E0,0E0,0E0,0E0,0E0,0E0,0E0,0E0,0E0,0E0,0E0,0E0,0E0,0E0,0E0,0E0,0E0,0E0,0E0,0E0],"parents":[2147483647,0,0,1,1,2,2,3,3,4,4,5,5,6,6,7,7,8,8,9,9,10,10,11,11,12,12,14,14,15,15,16,16,17,17,18,18,19,19,20,20,21,21,22,22,24,24,25,25,26,26,28,28],"right_children":[2,4,6,8,10,12,14,16,18,20,22,24,26,-1,28,30,32,34,36,38,40,42,44,-1,46,48,50,-1,52,-1,-1,-1,-1,-1,-1,-1,-1,-1,-1,-1,-1,-1,-1,-1,-1,-1,-1,-1,-1,-1,-1,-1,-1],"split_conditions":[2.4E1,3.4E1,2.1E1,2.7E1,1.000519E6,7.5E5,5.7E1,1.1E1,2.9E1,6.8792544E-2,1.1E1,1.00179E6,1E0,-6.324466E-2,1.017E3,4.8E5,1.3E1,2.8E1,1.003891E6,1.000432E6,8.5429054E-1,6E0,5.8E1,-7.137749E-2,1.00382E6,1.9E1,6.03E2,-6.3593745E-2,2.6E1,2.6001638E-2,-9.220059E-2,-1.1211721E-1,8.775957E-3,-9.720883E-3,-6.581098E-2,1.4774784E-2,-8.463236E-2,-8.8920824E-2,5.833785E-2,4.541606E-2,-7.1756385E-2,7.1451687E-3,-6.11628E-2,2.1709897E-2,-8.0111854E-2,5.2138608E-2,-6.7753226E-2,-6.793702E-2,-9.929482E-4,4.1994374E-2,-6.5407045E-2,6.107337E-2,-4.385176E-2],"split_indices":[3,6,8,8,0,4,8,3,6,11,8,0,16,0,1,4,3,8,0,0,11,8,6,0,0,8,2,0,3,0,0,0,0,0,0,0,0,0,0,0,0,0,0,0,0,0,0,0,0,0,0,0,0],"split_type":[0,0,0,0,0,0,0,0,0,0,0,0,0,0,0,0,0,0,0,0,0,0,0,0,0,0,0,0,0,0,0,0,0,0,0,0,0,0,0,0,0,0,0,0,0,0,0,0,0,0,0,0,0],"sum_hessian":[2.8996196E3,2.3381875E3,5.614319E2,1.0706841E3,1.2675035E3,2.775924E2,2.8383948E2,6.848852E2,3.8579886E2,2.1695995E2,1.0505436E3,7.886205E1,1.9873036E2,2.498212E2,3.4018288E1,4.9980286E2,1.8508235E2,2.0199896E2,1.8379991E2,2.051838E1,1.9644157E2,2.6742334E2,7.8312024E2,7.282538E0,7.157951E1,1.2154895E2,7.718141E1,2.3546894E1,1.0471392E1,4.8894394E2,1.0858907E1,2.7614065E1,1.5746828E2,2.5093292E1,1.7690567E2,1.6206523E2,2.1734678E1,9.73388E0,1.0784499E1,1.9429646E2,2.1451037E0,2.1037224E2,5.705109E1,7.6925305E2,1.3867188E1,6.6292534E1,5.286977E0,1.0212735E2,1.9421606E1,5.3267136E1,2.391428E1,8.607945E0,1.8634466E0],"tree_param":{"num_deleted":"0","num_feature":"20","num_nodes":"53","size_leaf_vector":"1"}},{"base_weights":[-4.604783E-3,2.2364771E-1,-5.424683E-1,2.503522E-1,-8.4474677E-1,-1.1728613E0,-2.2757213E-1,-1.0336578E-1,2.6153064E-1,-7.333779E-2,1.1186868E0,2.6309806E-1,-6.344113E-2,-9.7240984E-2,-1.3760438E0,5.3998464E-1,1.6972336E-1,7.091543E-2,-4.025971E-2,6.876492E-2,-5.7308175E-2,9.096175E-2,-9.6324044E-1,-8.139261E-2,-6.1108768E-2,2.8367842E-2,-8.209469E-2,-8.822645E-2,9.708465E-3,2.5105191E-2,-1.6509272E-2,-8.724486E-2,4.0756105E-3],"categories":[],"categories_nodes":[],"categories_segments":[],"categories_sizes":[],"default_left":[0,0,0,0,0,0,0,0,0,0,0,0,0,0,0,0,0,0,0,0,0,0,0,0,0,0,0,0,0,0,0,0,0],"id":19,"left_children":[1,3,5,7,9,11,13,-1,15,-1,17,19,-1,21,23,25,27,-1,-1,-1,-1,29,31,-1,-1,-1,-1,-1,-1,-1,-1,-1,-1],"loss_changes":[3.5219534E2,5.7675056E1,1.69399E2,5.146868E1,6.1902016E1,3.9534027E1,8.5368004E1,0E0,4.994214E1,0E0,8.311899E0,3.0805408E1,0E0,8.3874695E1,2.6317596E-1,2.988704E1,7.0009735E1,0E0,0E0,0E0,0E0,7.344683E1,7.516155E1,0E0,0E0,0E0,0E0,0E0,0E0,0E0,0E0,0E0,0E0],"parents":[2147483647,0,0,1,1,2,2,3,3,4,4,5,5,6,6,8,8,10,10,11,11,13,13,14,14,15,15,16,16,21,21,22,22],"right_children":[2,4,6,8,10,12,14,-1,16,-1,18,20,-1,22,24,26,28,-1,-1,-1,-1,30,32,-1,-1,-1,-1,-1,-1,-1,-1,-1,-1],"split_conditions":[6.4E5,2E1,3E1,1E0,1.9E1,1E0,5.4E1,-1.0336578E-1,6E0,-7.333779E-2,2E1,1.5E1,-6.344113E-2,1E0,2.4E1,8.3587176E-1,3E0,7.091543E-2,-4.025971E-2,6.876492E-2,-5.7308175E-2,2.5E1,1.18E6,-8.139261E-2,-6.1108768E-2,2.8367842E-2,-8.209469E-2,-8.822645E-2,9.708465E-3,2.5105191E-2,-1.6509272E-2,-8.724486E-2,4.0756105E-3],"split_indices":[4,5,6,6,3,6,6,0,3,0,3,3,0,18,3,11,5,0,0,0,0,3,4,0,0,0,0,0,0,0,0,0,0],"split_type":[0,0,0,0,0,0,0,0,0,0,0,0,0,0,0,0,0,0,0,0,0,0,0,0,0,0,0,0,0,0,0,0,0],"sum_hessian":[2.8667837E3,2.0130796E3,8.53704E2,1.9647368E3,4.8342888E1,2.8347952E2,5.702245E2,8.547798E0,1.956189E3,3.69046E1,1.1438289E1,1.7648365E1,2.6583118E2,5.130833E2,5.7141174E1,4.8383173E2,1.4723572E3,1.0124331E1,1.3139575E0,9.877256E0,7.7711086E0,4.2221967E2,9.0863625E1,1.8039577E1,3.9101597E1,4.7856796E2,5.2637806E0,1.7487667E1,1.4548695E3,2.1355035E2,2.086693E2,5.1592964E1,3.9270664E1],"tree_param":{"num_deleted":"0","num_feature":"20","num_nodes":"33","size_leaf_vector":"1"}},{"base_weights":[-4.731186E-3,1.575825E-1,-7.0449775E-1,1.864475E-1,-9.441162E-1,-2.4950999E-1,-1.1615434E0,-3.0151156E-3,3.462821E-1,-7.164571E-2,6.3282466E-1,6.0746187E-1,-5.9782815E-1,-6.188432E-2,-5.915755E-1,2.999382E-1,-5.5217314E-1,-7.9299144E-2,3.6407053E-1,-5.8516342E-2,6.544274E-2,-6.7752466E-2,8.3569664E-1,3.3733603E-1,-1.0262395E0,-6.2002655E-2,8.0268914E-1,6.390641E-3,4.2024564E-2,-5.742056E-2,3.4119026E-3,1.9173456E-2,-6.981804E-2,-6.8876006E-2,5.011909E-2,-6.275475E-2,4.525086E-2,-6.5699615E-2,-5.6840773E-3,6.0229626E-2,-4.2374402E-2],"categories":[],"categories_nodes":[],"categories_segments":[],"categories_sizes":[],"default_left":[0,0,0,0,0,0,0,0,0,0,0,0,0,0,0,0,0,0,0,0,0,0,0,0,0,0,0,0,0,0,0,0,0,0,0,0,0,0,0,0,0],"id":20,"left_children":[1,3,5,7,9,11,13,15,17,-1,19,21,23,-1,25,27,29,-1,31,-1,-1,-1,33,35,37,-1,39,-1,-1,-1,-1,-1,-1,-1,-1,-1,-1,-1,-1,-1,-1],"loss_changes":[3.2338812E2,7.367142E1,1.1118622E2,6.8226875E1,4.651669E1,8.093211E1,1.0862183E1,1.7184601E2,4.2581406E1,0E0,1.9444714E1,3.6293022E1,7.743441E1,0E0,3.1193623E1,6.1830242E1,1.3592308E2,0E0,4.1915024E1,0E0,0E0,0E0,2.7550991E1,5.6465702E1,3.456752E1,0E0,8.455423E0,0E0,0E0,0E0,0E0,0E0,0E0,0E0,0E0,0E0,0E0,0E0,0E0,0E0,0E0],"parents":[2147483647,0,0,1,1,2,2,3,3,4,4,5,5,6,6,7,7,8,8,10,10,11,11,12,12,14,14,15,15,16,16,18,18,22,22,23,23,24,24,26,26],"right_children":[2,4,6,8,10,12,14,16,18,-1,20,22,24,-1,26,28,30,-1,32,-1,-1,-1,34,36,38,-1,40,-1,-1,-1,-1,-1,-1,-1,-1,-1,-1,-1,-1,-1,-1],"split_conditions":[2.4E1,2E1,2.1E1,3.4E1,2.3E1,7.5E5,5.7E1,2.7E1,3E0,-7.164571E-2,1E0,6.29E2,1.000759E6,-6.188432E-2,1.017E3,1.6E1,2.9E1,-7.9299144E-2,5.9E1,-5.8516342E-2,6.544274E-2,-6.7752466E-2,1.00179E6,4.2E1,1.57E6,-6.2002655E-2,2.6E1,6.390641E-3,4.2024564E-2,-5.742056E-2,3.4119026E-3,1.9173456E-2,-6.981804E-2,-6.8876006E-2,5.011909E-2,-6.275475E-2,4.525086E-2,-6.5699615E-2,-5.6840773E-3,6.0229626E-2,-4.2374402E-2],"split_indices":[3,5,8,6,7,4,8,8,7,0,17,1,0,0,1,5,6,0,6,0,0,0,0,6,4,0,3,0,0,0,0,0,0,0,0,0,0,0,0,0,0],"split_type":[0,0,0,0,0,0,0,0,0,0,0,0,0,0,0,0,0,0,0,0,0,0,0,0,0,0,0,0,0,0,0,0,0,0,0,0,0,0,0,0,0],"sum_hessian":[2.845208E3,2.3101372E3,5.3507086E2,2.2519653E3,5.8171738E1,2.689138E2,2.6615707E2,1.0309238E3,1.2210416E3,4.4476784E1,1.3694956E1,7.74987E1,1.9141508E2,2.3375748E2,3.2399616E1,6.6468933E2,3.662345E2,1.0334191E1,1.2107074E3,3.5349994E0,1.0159957E1,7.5595636E0,6.993914E1,6.020603E1,1.3120905E2,2.2189707E1,1.020991E1,5.0509204E2,1.5959729E2,1.8632156E2,1.7991292E2,1.1982854E3,1.2421974E1,4.3896704E0,6.554947E1,1.5504016E1,4.4702015E1,9.941962E1,3.1789434E1,8.427421E0,1.78249E0],"tree_param":{"num_deleted":"0","num_feature":"20","num_nodes":"41","size_leaf_vector":"1"}},{"base_weights":[-4.8901103E-3,2.0538813E-1,-5.148764E-1,2.9710907E-1,-1.0022553E-1,-1.1446327E0,-2.1394466E-1,1.8717627E-1,6.37455E-1,7.1245056E-1,-3.9214513E-1,2.7635083E-1,-6.2123306E-2,1.2019103E-1,-6.533594E-1,1.0023232E0,1.370669E-1,6.9930077E-1,-7.73004E-2,-8.0042854E-2,7.964496E-1,-1.01276375E-1,-2.713404E-1,6.6915594E-2,-5.586952E-2,-2.2731434E-1,6.718594E-1,8.051884E-1,-9.096451E-1,5.608953E-2,-7.6116174E-2,1.0709152E-2,-3.354661E-2,1.0146312E-2,4.7371056E-2,4.3371286E-2,-7.404355E-2,-2.5725007E-2,2.7513012E-2,-7.923116E-2,4.9862806E-3,4.012398E-2,-6.8414815E-2,5.441734E-2,-8.288975E-2,-3.057184E-3,-6.2117547E-2],"categories":[],"categories_nodes":[],"categories_segments":[],"categories_sizes":[],"default_left":[0,0,0,0,0,0,0,0,0,0,0,0,0,0,0,0,0,0,0,0,0,0,0,0,0,0,0,0,0,0,0,0,0,0,0,0,0,0,0,0,0,0,0,0,0,0,0],"id":21,"left_children":[1,3,5,7,9,11,13,15,17,19,21,23,-1,25,27,29,31,33,-1,-1,35,-1,37,-1,-1,39,41,43,45,-1,-1,-1,-1,-1,-1,-1,-1,-1,-1,-1,-1,-1,-1,-1,-1,-1,-1],"loss_changes":[3.020149E2,5.592656E1,1.5557285E2,5.7276627E1,1.0966076E2,3.727005E1,8.194409E1,4.728214E1,5.159996E1,2.5021198E1,6.6511955E1,2.8030468E1,0E0,6.103431E1,9.081962E1,2.193805E1,6.836335E1,4.4698776E1,0E0,0E0,2.0452888E1,0E0,6.373548E1,0E0,0E0,8.69786E1,3.3872192E1,2.7293709E1,5.7923462E1,0E0,0E0,0E0,0E0,0E0,0E0,0E0,0E0,0E0,0E0,0E0,0E0,0E0,0E0,0E0,0E0,0E0,0E0],"parents":[2147483647,0,0,1,1,2,2,3,3,4,4,5,5,6,6,7,7,8,8,9,9,10,10,11,11,13,13,14,14,15,15,16,16,17,17,20,20,22,22,25,25,26,26,27,27,28,28],"right_children":[2,4,6,8,10,12,14,16,18,20,22,24,-1,26,28,30,32,34,-1,-1,36,-1,38,-1,-1,40,42,44,46,-1,-1,-1,-1,-1,-1,-1,-1,-1,-1,-1,-1,-1,-1,-1,-1,-1,-1],"split_conditions":[6.4E5,8.57E2,3E1,8.43E2,2.1E5,1E0,6.18E2,1.000129E6,1.8E1,6E0,2.4E5,1.5E1,-6.2123306E-2,1E0,1.6E1,4.7741562E-1,5.6E5,3.9205363E-1,-7.73004E-2,-8.0042854E-2,7.316268E-1,-1.01276375E-1,1.045E3,6.6915594E-2,-5.586952E-2,1.04490176E-1,6.858851E-1,4.740579E-1,3.5E1,5.608953E-2,-7.6116174E-2,1.0709152E-2,-3.354661E-2,1.0146312E-2,4.7371056E-2,4.3371286E-2,-7.404355E-2,-2.5725007E-2,2.7513012E-2,-7.923116E-2,4.9862806E-3,4.012398E-2,-6.8414815E-2,5.441734E-2,-8.288975E-2,-3.057184E-3,-6.2117547E-2],"split_indices":[4,2,6,2,4,6,2,0,7,7,4,3,0,16,3,11,4,11,0,0,11,0,1,0,0,11,11,11,6,0,0,0,0,0,0,0,0,0,0,0,0,0,0,0,0,0,0],"split_type":[0,0,0,0,0,0,0,0,0,0,0,0,0,0,0,0,0,0,0,0,0,0,0,0,0,0,0,0,0,0,0,0,0,0,0,0,0,0,0,0,0,0,0,0,0,0,0],"sum_hessian":[2.814292E3,1.993094E3,8.2119794E2,1.5330286E3,4.600655E2,2.646223E2,5.565756E2,1.1599205E3,3.73108E2,1.2120418E2,3.3886133E2,1.692789E1,2.4769443E2,3.1657504E2,2.4000058E2,6.6073685E1,1.0938468E3,3.6349194E2,9.616055E0,3.614132E0,1.1759004E2,2.2250381E1,3.1661093E2,9.630047E0,7.2978435E0,1.9458842E2,1.2198663E2,3.5548523E1,2.0445206E2,6.361887E1,2.454812E0,9.9921576E2,9.463108E1,1.2174804E2,2.4174393E2,1.1463634E2,2.9537096E0,2.445948E2,7.2016136E1,3.7035446E1,1.5755298E2,1.1521659E2,6.7700424E0,3.238364E1,3.1648846E0,5.792062E1,1.4653143E2],"tree_param":{"num_deleted":"0","num_feature":"20","num_nodes":"47","size_leaf_vector":"1"}},{"base_weights":[-4.9671093E-3,1.3185598E-1,-7.372079E-1,-8.283406E-2,2.6558903E-1,-2.7689645E-1,-6.0791302E-2,2.2751054E-1,-1.1388726E0,-8.033999E-2,2.855967E-1,-9.8050404E-1,1.4167187E-1,2.6899382E-1,-1.0304626E-1,-1.3087989E0,3.3077392E-1,5.3957635E-1,1.6618688E-1,-6.52843E-2,7.913247E-1,5.312997E-1,-6.3728355E-2,1.9787183E-2,-2.3033917E-2,-6.337765E-2,-8.29815E-2,-6.0731586E-2,7.144386E-2,2.9212503E-2,-7.685897E-2,1.0386178E-2,-7.2341286E-2,6.156956E-2,-4.794928E-2,3.70686E-2,-6.812381E-2],"categories":[],"categories_nodes":[],"categories_segments":[],"categories_sizes":[],"default_left":[0,0,0,0,0,0,0,0,0,0,0,0,0,0,0,0,0,0,0,0,0,0,0,0,0,0,0,0,0,0,0,0,0,0,0,0,0],"id":22,"left_children":[1,3,5,7,9,11,-1,13,15,-1,17,19,21,23,-1,25,27,29,31,-1,33,35,-1,-1,-1,-1,-1,-1,-1,-1,-1,-1,-1,-1,-1,-1,-1],"loss_changes":[2.7965335E2,6.7547104E1,9.648093E1,2.9635815E2,5.4756836E1,6.649329E1,0E0,6.6921104E1,5.1720306E1,0E0,4.3428497E1,4.952613E1,7.9111595E1,6.376965E1,0E0,5.630188E-1,3.9210617E1,4.343106E1,6.579138E1,0E0,1.1713327E1,4.5638313E1,0E0,0E0,0E0,0E0,0E0,0E0,0E0,0E0,0E0,0E0,0E0,0E0,0E0,0E0,0E0],"parents":[2147483647,0,0,1,1,2,2,3,3,4,4,5,5,7,7,8,8,10,10,11,11,12,12,13,13,15,15,16,16,17,17,18,18,20,20,21,21],"right_children":[2,4,6,8,10,12,-1,14,16,-1,18,20,22,24,-1,26,28,30,32,-1,34,36,-1,-1,-1,-1,-1,-1,-1,-1,-1,-1,-1,-1,-1,-1,-1],"split_conditions":[2.6E1,3E1,2.1E1,2.8E1,3E0,1.1E1,-6.0791302E-2,2E1,1.029E3,-8.033999E-2,2.1E1,7.05E1,8.38E2,1.4E1,-1.0304626E-1,2.9E1,4.1E1,5.8E1,2E1,-6.52843E-2,7.2682306E-2,5.6332874E-1,-6.3728355E-2,1.9787183E-2,-2.3033917E-2,-6.337765E-2,-8.29815E-2,-6.0731586E-2,7.144386E-2,2.9212503E-2,-7.685897E-2,1.0386178E-2,-7.2341286E-2,6.156956E-2,-4.794928E-2,3.70686E-2,-6.812381E-2],"split_indices":[3,6,8,8,7,8,0,6,1,0,10,10,2,3,0,6,8,6,5,0,11,11,0,0,0,0,0,0,0,0,0,0,0,0,0,0,0],"split_type":[0,0,0,0,0,0,0,0,0,0,0,0,0,0,0,0,0,0,0,0,0,0,0,0,0,0,0,0,0,0,0,0,0,0,0,0,0],"sum_hessian":[2.789331E3,2.3508772E3,4.3845398E2,9.0246857E2,1.4484086E3,2.24306E2,2.1414796E2,6.980986E2,2.0437E2,1.447502E1,1.4339335E3,8.316473E1,1.4114127E2,6.8653595E2,1.1562626E1,1.8328706E2,2.1082926E1,4.5744614E2,9.7648737E2,7.049072E1,1.2674005E1,1.1117913E2,2.996214E1,5.8531903E2,1.0121692E2,1.6813327E2,1.51538E1,8.713684E0,1.2369241E1,4.4851663E2,8.929501E0,9.5282245E2,2.3664898E1,1.0364591E1,2.309414E0,1.00625496E2,1.0553639E1],"tree_param":{"num_deleted":"0","num_feature":"20","num_nodes":"37","size_leaf_vector":"1"}},{"base_weights":[-5.1866616E-3,1.8906534E-1,-4.9049872E-1,2.7714035E-1,-1.04335025E-1,-1.1157502E0,-2.0558242E-1,1.7182615E-1,6.0541445E-1,6.7456067E-1,-3.8069445E-1,3.0443072E-1,-6.0877915E-2,-8.4817335E-2,-1.3326907E0,-1.0271068E-1,1.8999822E-1,6.6492265E-1,-7.518813E-2,-7.7660784E-2,7.5693685E-1,-9.692479E-2,-2.6492298E-1,6.58878E-2,-5.4406643E-2,-7.470488E-2,2.1479793E-2,-7.827405E-2,-5.8627613E-2,6.230506E-3,3.8639706E-2,9.518304E-3,4.5274824E-2,4.1298382E-2,-7.1893305E-2,-3.3168204E-3,-6.216014E-2,9.628451E-3,-4.1439306E-2],"categories":[],"categories_nodes":[],"categories_segments":[],"categories_sizes":[],"default_left":[0,0,0,0,0,0,0,0,0,0,0,0,0,0,0,0,0,0,0,0,0,0,0,0,0,0,0,0,0,0,0,0,0,0,0,0,0,0,0],"id":23,"left_children":[1,3,5,7,9,11,13,15,17,19,21,23,-1,25,27,-1,29,31,-1,-1,33,-1,35,-1,-1,-1,37,-1,-1,-1,-1,-1,-1,-1,-1,-1,-1,-1,-1],"loss_changes":[2.6044147E2,5.1012688E1,1.4044955E2,5.2366364E1,9.8465614E1,3.6080048E1,7.3894775E1,4.692904E1,4.7219147E1,2.3169281E1,6.03358E1,2.587536E1,0E0,7.375934E1,1.23428345E-1,0E0,4.34258E1,4.079387E1,0E0,0E0,1.8799728E1,0E0,6.1155605E1,0E0,0E0,0E0,6.68772E1,0E0,0E0,0E0,0E0,0E0,0E0,0E0,0E0,0E0,0E0,0E0,0E0],"parents":[2147483647,0,0,1,1,2,2,3,3,4,4,5,5,6,6,7,7,8,8,9,9,10,10,11,11,13,13,14,14,16,16,17,17,20,20,22,22,26,26],"right_children":[2,4,6,8,10,12,14,16,18,20,22,24,-1,26,28,-1,30,32,-1,-1,34,-1,36,-1,-1,-1,38,-1,-1,-1,-1,-1,-1,-1,-1,-1,-1,-1,-1],"split_conditions":[6.4E5,8.57E2,3E1,8.43E2,2.1E5,1E0,5.4E1,1E0,1.8E1,6E0,2.4E5,1.5E1,-6.0877915E-2,6.142915E-2,2.4E1,-1.0271068E-1,1.004465E6,3.9205363E-1,-7.518813E-2,-7.7660784E-2,7.316268E-1,-9.692479E-2,1E0,6.58878E-2,-5.4406643E-2,-7.470488E-2,1E0,-7.827405E-2,-5.8627613E-2,6.230506E-3,3.8639706E-2,9.518304E-3,4.5274824E-2,4.1298382E-2,-7.1893305E-2,-3.3168204E-3,-6.216014E-2,9.628451E-3,-4.1439306E-2],"split_indices":[4,2,6,2,4,6,6,8,7,7,4,3,0,11,3,0,0,11,0,0,11,0,19,0,0,0,18,0,0,0,0,0,0,0,0,0,0,0,0],"split_type":[0,0,0,0,0,0,0,0,0,0,0,0,0,0,0,0,0,0,0,0,0,0,0,0,0,0,0,0,0,0,0,0,0,0,0,0,0,0,0],"sum_hessian":[2.7606516E3,1.9719609E3,7.8869073E2,1.5167173E3,4.5524368E2,2.4597664E2,5.4271405E2,1.1494755E3,3.6724188E2,1.1884585E2,3.3639786E2,1.6320618E1,2.2965602E2,4.9116318E2,5.155089E1,8.400414E0,1.141075E3,3.578308E2,9.411071E0,3.6011603E0,1.1524469E2,2.2181616E1,3.1421622E2,9.477706E0,6.8429127E0,3.3532722E1,4.5763046E2,1.7433039E1,3.411785E1,1.0270559E3,1.1401907E2,1.2097887E2,2.3685194E2,1.12335205E2,2.9094863E0,2.6208243E2,5.2133793E1,3.816158E2,7.601464E1],"tree_param":{"num_deleted":"0","num_feature":"20","num_nodes":"39","size_leaf_vector":"1"}},{"base_weights":[-5.2875164E-3,1.2117851E-1,-7.083483E-1,1.468545E-1,-9.051777E-1,-2.5702035E-1,-5.9773207E-2,4.644913E-1,6.086331E-2,-6.862415E-2,5.6712663E-1,-9.5465946E-1,1.4488871E-1,5.340164E-1,-3.673642E-1,-1.9626935E-1,2.3345852E-1,-5.7772975E-2,6.256859E-2,-6.4072184E-2,7.7251714E-1,5.1303005E-1,-6.250816E-2,3.8820352E-2,1.621463E-2,3.9524347E-2,-1.0565046E-1,6.6290423E-3,-4.1443832E-2,1.6740901E-2,-1.8120933E-2,-4.6819832E-2,5.9994143E-2,3.5656396E-2,-6.671309E-2],"categories":[],"categories_nodes":[],"categories_segments":[],"categories_sizes":[],"default_left":[0,0,0,0,0,0,0,0,0,0,0,0,0,0,0,0,0,0,0,0,0,0,0,0,0,0,0,0,0,0,0,0,0,0,0],"id":24,"left_children":[1,3,5,7,9,11,-1,13,15,-1,17,19,21,23,25,27,29,-1,-1,-1,31,33,-1,-1,-1,-1,-1,-1,-1,-1,-1,-1,-1,-1,-1],"loss_changes":[2.4381302E2,6.137992E1,9.160153E1,6.1926968E1,3.990057E1,6.1339134E1,0E0,2.8135742E1,7.931576E1,0E0,1.8427399E1,4.609513E1,7.221191E1,2.2432777E1,7.8181145E1,1.4946455E2,6.470061E1,0E0,0E0,0E0,1.0864971E1,4.197017E1,0E0,0E0,0E0,0E0,0E0,0E0,0E0,0E0,0E0,0E0,0E0,0E0,0E0],"parents":[2147483647,0,0,1,1,2,2,3,3,4,4,5,5,7,7,8,8,10,10,11,11,12,12,13,13,14,14,15,15,16,16,20,20,21,21],"right_children":[2,4,6,8,10,12,-1,14,16,-1,18,20,22,24,26,28,30,-1,-1,-1,32,34,-1,-1,-1,-1,-1,-1,-1,-1,-1,-1,-1,-1,-1],"split_conditions":[2.6E1,2E1,2.1E1,6E0,2.3E1,1.1E1,-5.9773207E-2,1.019E3,3.2E1,-6.862415E-2,1E0,7.05E1,8.38E2,9E0,1.001956E6,2.8E1,5.4E1,-5.7772975E-2,6.256859E-2,-6.4072184E-2,1E0,5.6332874E-1,-6.250816E-2,3.8820352E-2,1.621463E-2,3.9524347E-2,-1.0565046E-1,6.6290423E-3,-4.1443832E-2,1.6740901E-2,-1.8120933E-2,-4.6819832E-2,5.9994143E-2,3.5656396E-2,-6.671309E-2],"split_indices":[3,5,8,3,7,8,0,2,6,0,17,10,2,7,0,8,6,0,0,0,19,11,0,0,0,0,0,0,0,0,0,0,0,0,0],"split_type":[0,0,0,0,0,0,0,0,0,0,0,0,0,0,0,0,0,0,0,0,0,0,0,0,0,0,0,0,0,0,0,0,0,0,0],"sum_hessian":[2.7401782E3,2.323124E3,4.170541E2,2.2672617E3,5.586238E1,2.1727226E2,1.9978185E2,4.8209253E2,1.7851691E3,4.2455063E1,1.3407318E1,7.8915085E1,1.3835718E2,4.452383E2,3.685422E1,7.169373E2,1.0682318E3,3.6158233E0,9.791494E0,6.6576744E1,1.2338341E1,1.0996949E2,2.8387684E1,2.0528075E2,2.3995757E2,2.2486528E1,1.4367695E1,4.7224118E2,2.4469617E2,9.1331396E2,1.5491782E2,2.2300231E0,1.0108318E1,9.977578E1,1.0193711E1],"tree_param":{"num_deleted":"0","num_feature":"20","num_nodes":"35","size_leaf_vector":"1"}},{"base_weights":[-5.320159E-3,1.1572511E-1,-6.9503045E-1,4.245776E-2,4.540982E-1,-2.505823E-1,-5.9191287E-2,2.1029963E-1,-1.4870334E-1,7.439107E-1,-6.74702E-2,-9.3974507E-1,1.3867784E-1,-1.03241645E-1,2.5797784E-1,2.7790287E-1,-4.93139E-1,7.757948E-1,-9.088042E-2,-1.3916097E0,4.1575995E-1,-6.322987E-2,7.490948E-1,4.9113744E-1,-6.169786E-2,1.5431151E-2,-6.805465E-2,-1.0083782E-1,1.9983966E-2,-9.364431E-2,-1.3223466E-2,4.4263218E-2,1.0883927E-2,6.6133805E-2,-1.1924129E-1,-1.10773146E-1,2.7879644E-2,-4.608E-2,5.8384575E-2,3.4105863E-2,-6.542544E-2],"categories":[],"categories_nodes":[],"categories_segments":[],"categories_sizes":[],"default_left":[0,0,0,0,0,0,0,0,0,0,0,0,0,0,0,0,0,0,0,0,0,0,0,0,0,0,0,0,0,0,0,0,0,0,0,0,0,0,0,0,0],"id":25,"left_children":[1,3,5,7,9,11,-1,13,15,17,19,21,23,-1,25,27,29,31,-1,33,35,-1,37,39,-1,-1,-1,-1,-1,-1,-1,-1,-1,-1,-1,-1,-1,-1,-1,-1,-1],"loss_changes":[2.2677638E2,5.7270004E1,8.780582E1,6.10126E1,6.2205627E1,5.7452114E1,0E0,1.1035812E2,1.3079048E2,2.300473E1,9.5144226E1,4.333175E1,6.709013E1,0E0,8.1808395E1,1.1197819E2,1.5483664E2,1.5805954E1,0E0,1.10299614E2,4.193065E1,0E0,1.0231346E1,3.871955E1,0E0,0E0,0E0,0E0,0E0,0E0,0E0,0E0,0E0,0E0,0E0,0E0,0E0,0E0,0E0,0E0,0E0],"parents":[2147483647,0,0,1,1,2,2,3,3,4,4,5,5,7,7,8,8,9,9,10,10,11,11,12,12,14,14,15,15,16,16,17,17,19,19,20,20,22,22,23,23],"right_children":[2,4,6,8,10,12,-1,14,16,18,20,22,24,-1,26,28,30,32,-1,34,36,-1,38,40,-1,-1,-1,-1,-1,-1,-1,-1,-1,-1,-1,-1,-1,-1,-1,-1,-1],"split_conditions":[2.6E1,5.3E1,2.1E1,1.1E1,3.0863523E-1,1.1E1,-5.9191287E-2,5.7538036E-2,1.5E1,1.03E3,6.151095E-1,7.05E1,8.38E2,-1.03241645E-1,5E1,3.9E5,2.2E1,1.7E1,-9.088042E-2,1.000129E6,2.8E5,-6.322987E-2,1.019E3,5.6332874E-1,-6.169786E-2,1.5431151E-2,-6.805465E-2,-1.0083782E-1,1.9983966E-2,-9.364431E-2,-1.3223466E-2,4.4263218E-2,1.0883927E-2,6.6133805E-2,-1.1924129E-1,-1.10773146E-1,2.7879644E-2,-4.608E-2,5.8384575E-2,3.4105863E-2,-6.542544E-2],"split_indices":[3,8,8,3,11,8,0,11,8,1,11,10,2,0,8,4,8,3,0,0,4,0,2,11,0,0,0,0,0,0,0,0,0,0,0,0,0,0,0,0,0],"split_type":[0,0,0,0,0,0,0,0,0,0,0,0,0,0,0,0,0,0,0,0,0,0,0,0,0,0,0,0,0,0,0,0,0,0,0,0,0,0,0,0,0],"sum_hessian":[2.7143716E3,2.3098257E3,4.045459E2,1.8996279E3,4.1019775E2,2.126771E2,1.9186882E2,1.0114563E3,8.8817163E2,2.6340753E2,1.467902E2,7.625601E1,1.3642108E2,1.9892826E1,9.915635E2,3.9684552E2,4.913261E2,2.6085767E2,2.5498536E0,3.8744194E1,1.0804602E2,6.416494E1,1.2091067E1,1.0905943E2,2.736164E1,9.622726E2,2.9290878E1,1.9214851E1,3.7763068E2,6.8829895E1,4.2249622E2,2.1759265E2,4.3265022E1,1.029046E1,2.8453733E1,4.7784305E0,1.03267586E2,2.1817336E0,9.909334E0,9.9157715E1,9.901719E0],"tree_param":{"num_deleted":"0","num_feature":"20","num_nodes":"41","size_leaf_vector":"1"}},{"base_weights":[-5.433436E-3,1.1023444E-1,-6.821514E-1,1.3454325E-1,-8.864642E-1,-2.4437611E-1,-5.8646113E-2,4.338013E-1,5.3809647E-2,-6.718054E-2,5.4362434E-1,-9.256523E-1,1.3269705E-1,2.6333594E-1,7.616574E-1,-7.884634E-2,7.858576E-2,-5.6271728E-2,6.053182E-2,-6.24399E-2,7.267842E-1,4.7019666E-1,-6.0931753E-2,-1.13541804E-1,1.9189484E-2,4.3863136E-2,-1.0097841E-1,-7.489619E-3,1.1482153E-2,5.7112265E-2,-4.557744E-2,3.26247E-2,-6.421306E-2],"categories":[],"categories_nodes":[],"categories_segments":[],"categories_sizes":[],"default_left":[0,0,0,0,0,0,0,0,0,0,0,0,0,0,0,0,0,0,0,0,0,0,0,0,0,0,0,0,0,0,0,0,0],"id":26,"left_children":[1,3,5,7,9,11,-1,13,15,-1,17,19,21,23,25,-1,27,-1,-1,-1,29,31,-1,-1,-1,-1,-1,-1,-1,-1,-1,-1,-1],"loss_changes":[2.1090868E2,5.5873817E1,8.421768E1,5.4271133E1,3.663494E1,5.385123E1,0E0,2.6475769E1,7.16763E1,0E0,1.6965445E1,4.0764618E1,6.2374187E1,9.719799E1,5.4100334E1,0E0,6.0247616E1,0E0,0E0,0E0,9.781786E0,3.5747257E1,0E0,0E0,0E0,0E0,0E0,0E0,0E0,0E0,0E0,0E0,0E0],"parents":[2147483647,0,0,1,1,2,2,3,3,4,4,5,5,7,7,8,8,10,10,11,11,12,12,13,13,14,14,16,16,20,20,21,21],"right_children":[2,4,6,8,10,12,-1,14,16,-1,18,20,22,24,26,-1,28,-1,-1,-1,30,32,-1,-1,-1,-1,-1,-1,-1,-1,-1,-1,-1],"split_conditions":[2.6E1,2E1,2.1E1,6E0,2.3E1,1.1E1,-5.8646113E-2,2.8E5,3E0,-6.718054E-2,1E0,7.05E1,8.38E2,1E0,8.54E2,-7.884634E-2,3.2E1,-5.6271728E-2,6.053182E-2,-6.24399E-2,7.2682306E-2,5.6332874E-1,-6.0931753E-2,-1.13541804E-1,1.9189484E-2,4.3863136E-2,-1.0097841E-1,-7.489619E-3,1.1482153E-2,5.7112265E-2,-4.557744E-2,3.26247E-2,-6.421306E-2],"split_indices":[3,5,8,3,7,8,0,4,7,0,17,10,2,12,2,0,6,0,0,0,11,11,0,0,0,0,0,0,0,0,0,0,0],"split_type":[0,0,0,0,0,0,0,0,0,0,0,0,0,0,0,0,0,0,0,0,0,0,0,0,0,0,0,0,0,0,0,0,0],"sum_hessian":[2.6925132E3,2.3001907E3,3.923225E2,2.2462708E3,5.3920036E1,2.0814864E2,1.8417387E2,4.7631696E2,1.7699537E3,4.0904766E1,1.3015271E1,7.364173E1,1.345069E2,3.1456525E2,1.6175171E2,2.5551249E1,1.7444025E3,3.5199788E0,9.495293E0,6.1800484E1,1.1841251E1,1.08148506E2,2.6358395E1,1.3463362E1,3.0110187E2,1.5595386E2,5.7978506E0,6.944686E2,1.0499338E3,9.687437E0,2.1538143E0,9.8537994E1,9.610517E0],"tree_param":{"num_deleted":"0","num_feature":"20","num_nodes":"33","size_leaf_vector":"1"}},{"base_weights":[-5.4920483E-3,1.6249774E-1,-4.4901583E-1,-9.720572E-2,1.7353368E-1,-1.0762566E0,-1.8502727E-1,2.5294682E-1,-9.133481E-2,3.5144112E-1,-5.92702E-2,1.1539294E-1,-6.020666E-1,1.5137547E-1,5.732233E-1,6.4477676E-1,-3.4819072E-1,6.399763E-2,-5.1977765E-2,-9.839619E-2,2.0263356E-1,-8.2615525E-2,-1.2607889E0,-9.889054E-2,8.457343E-3,3.148683E-2,-7.256987E-2,3.5776507E-2,-9.053532E-2,-2.8816057E-2,2.1651914E-2,1.5704362E-2,-6.2343653E-2,-4.943952E-2,1.8582465E-2,-7.976881E-2,-5.891467E-2],"categories":[],"categories_nodes":[],"categories_segments":[],"categories_sizes":[],"default_left":[0,0,0,0,0,0,0,0,0,0,0,0,0,0,0,0,0,0,0,0,0,0,0,0,0,0,0,0,0,0,0,0,0,0,0,0,0],"id":27,"left_children":[1,3,5,-1,7,9,11,13,15,17,-1,19,21,23,25,27,29,-1,-1,-1,31,33,35,-1,-1,-1,-1,-1,-1,-1,-1,-1,-1,-1,-1,-1,-1],"loss_changes":[1.9920839E2,4.542083E1,1.21420044E2,0E0,4.0619175E1,3.4286377E1,6.498476E1,4.822486E1,8.453648E1,2.226377E1,0E0,5.5289993E1,7.418775E1,4.3049736E1,4.178631E1,2.1396393E1,5.928035E1,0E0,0E0,0E0,4.7368446E1,5.0777924E1,7.604675E-1,0E0,0E0,0E0,0E0,0E0,0E0,0E0,0E0,0E0,0E0,0E0,0E0,0E0,0E0],"parents":[2147483647,0,0,1,1,2,2,4,4,5,5,6,6,7,7,8,8,9,9,11,11,12,12,13,13,14,14,15,15,16,16,20,20,21,21,22,22],"right_children":[2,4,6,-1,8,10,12,14,16,18,-1,20,22,24,26,28,30,-1,-1,-1,32,34,36,-1,-1,-1,-1,-1,-1,-1,-1,-1,-1,-1,-1,-1,-1],"split_conditions":[6.4E5,1E0,3E1,-9.720572E-2,8.57E2,1E0,6.18E2,8.43E2,2.1E5,1.5E1,-5.92702E-2,6.8E5,8.5E5,1E0,1.8E1,5.4E1,1.045E3,6.399763E-2,-5.1977765E-2,-9.839619E-2,5.4E1,6.34E2,2.4E1,-9.889054E-2,8.457343E-3,3.148683E-2,-7.256987E-2,3.5776507E-2,-9.053532E-2,-2.8816057E-2,2.1651914E-2,1.5704362E-2,-6.2343653E-2,-4.943952E-2,1.8582465E-2,-7.976881E-2,-5.891467E-2],"split_indices":[4,6,6,0,2,6,2,2,4,3,0,4,4,8,7,8,1,0,0,0,6,1,3,0,0,0,0,0,0,0,0,0,0,0,0,0,0],"split_type":[0,0,0,0,0,0,0,0,0,0,0,0,0,0,0,0,0,0,0,0,0,0,0,0,0,0,0,0,0,0,0,0,0,0,0,0,0],"sum_hessian":[2.6716907E3,1.938206E3,7.334845E2,9.187936E0,1.9290181E3,2.1635197E2,5.171325E2,1.484099E3,4.449191E2,1.5207727E1,2.0114426E2,3.0101523E2,2.1611731E2,1.1278799E3,3.5621918E2,1.146988E2,3.3022028E2,9.167867E0,6.039861E0,1.1232172E1,2.8978305E2,1.2146144E2,9.465586E1,8.423051E0,1.1194568E3,3.4721628E2,9.0029E0,1.1217513E2,2.5236647E0,2.5578854E2,7.443175E1,2.6981973E2,1.9963327E1,4.0164318E1,8.129712E1,1.5094867E1,7.9561E1],"tree_param":{"num_deleted":"0","num_feature":"20","num_nodes":"37","size_leaf_vector":"1"}},{"base_weights":[-5.609908E-3,1.1143509E-1,-5.989621E-1,1.3474448E-1,-8.597257E-1,-1.9274499E-1,-1.068137E0,6.46776E-2,4.586698E-1,-6.594083E-2,5.5697435E-1,5.5826885E-1,-5.226838E-1,-5.786484E-2,-4.6576953E-1,1.0462881E0,3.129168E-2,7.525458E-1,1.05904E-2,-5.619846E-2,5.863407E-2,-6.27297E-2,7.614567E-1,-1.0302843E0,2.0519458E-1,-5.800839E-2,8.349118E-1,-6.6713914E-2,5.8448065E-2,-8.139411E-2,2.7335573E-3,3.9302196E-2,-8.8267505E-2,1.2187785E-2,-1.1358531E-1,4.6214383E-2,-6.153741E-2,-6.3228354E-2,2.1909624E-3,3.7504014E-2,-6.054E-2,5.783335E-2,-3.54893E-2],"categories":[],"categories_nodes":[],"categories_segments":[],"categories_sizes":[],"default_left":[0,0,0,0,0,0,0,0,0,0,0,0,0,0,0,0,0,0,0,0,0,0,0,0,0,0,0,0,0,0,0,0,0,0,0,0,0,0,0,0,0,0,0],"id":28,"left_children":[1,3,5,7,9,11,13,15,17,-1,19,21,23,-1,25,27,29,31,33,-1,-1,-1,35,37,39,-1,41,-1,-1,-1,-1,-1,-1,-1,-1,-1,-1,-1,-1,-1,-1,-1,-1],"loss_changes":[1.8422818E2,5.027288E1,8.309198E1,4.9099613E1,3.460001E1,5.863775E1,1.0341629E1,5.83288E1,5.0660965E1,0E0,1.5235023E1,2.7607388E1,6.084599E1,0E0,2.6072105E1,1.8656883E1,6.693648E1,2.0986526E1,8.2197975E1,0E0,0E0,0E0,2.244526E1,2.4427605E1,5.357435E1,0E0,5.918088E0,0E0,0E0,0E0,0E0,0E0,0E0,0E0,0E0,0E0,0E0,0E0,0E0,0E0,0E0,0E0,0E0],"parents":[2147483647,0,0,1,1,2,2,3,3,4,4,5,5,6,6,7,7,8,8,10,10,11,11,12,12,14,14,15,15,16,16,17,17,18,18,22,22,23,23,24,24,26,26],"right_children":[2,4,6,8,10,12,14,16,18,-1,20,22,24,-1,26,28,30,32,34,-1,-1,-1,36,38,40,-1,42,-1,-1,-1,-1,-1,-1,-1,-1,-1,-1,-1,-1,-1,-1,-1,-1],"split_conditions":[2.4E1,2E1,2.1E1,5.3E1,2.3E1,7.5E5,5.7E1,5.8E2,2.3682527E-1,-6.594083E-2,1.9E1,6.29E2,1E0,-5.786484E-2,1.017E3,8.015905E-2,3E0,1.03E3,1E0,-5.619846E-2,5.863407E-2,-6.27297E-2,5.6463057E-1,1.9E1,6.03E2,-5.800839E-2,2.6E1,-6.6713914E-2,5.8448065E-2,-8.139411E-2,2.7335573E-3,3.9302196E-2,-8.8267505E-2,1.2187785E-2,-1.1358531E-1,4.6214383E-2,-6.153741E-2,-6.3228354E-2,2.1909624E-3,3.7504014E-2,-6.054E-2,5.783335E-2,-3.54893E-2],"split_indices":[3,5,8,8,7,4,8,1,11,0,3,1,16,0,1,11,7,1,19,0,0,0,11,8,2,0,3,0,0,0,0,0,0,0,0,0,0,0,0,0,0,0,0],"split_type":[0,0,0,0,0,0,0,0,0,0,0,0,0,0,0,0,0,0,0,0,0,0,0,0,0,0,0,0,0,0,0,0,0,0,0,0,0,0,0,0,0,0,0],"sum_hessian":[2.6507544E3,2.2146946E3,4.3605975E2,2.1636255E3,5.1069157E1,2.3446663E2,2.0159312E2,1.7798364E3,3.8378897E2,3.862241E1,1.244675E1,7.135494E1,1.6311168E2,1.7479892E2,2.6794199E1,5.754561E1,1.7222909E3,2.313663E2,1.5242267E2,3.1155322E0,9.331217E0,6.6699977E0,6.4684944E1,9.585195E1,6.7259735E1,1.7538763E1,9.255437E0,2.3360515E0,5.520956E1,2.2978012E1,1.6993129E3,2.290074E2,2.3589E0,1.3910458E2,1.3318085E1,6.0293003E1,4.39194E0,7.854291E1,1.7309044E1,4.890933E1,1.8350407E1,7.867802E0,1.3876345E0],"tree_param":{"num_deleted":"0","num_feature":"20","num_nodes":"43","size_leaf_vector":"1"}},{"base_weights":[-5.685504E-3,1.4010952E-1,-4.588919E-1,-1.758405E-2,2.75078E-1,-1.0392241E0,-2.1302725E-1,2.0388152E-1,-5.7780296E-1,6.353203E-2,4.9136248E-1,4.917873E-1,-5.8383353E-2,7.7603824E-2,-8.378077E-1,2.4614993E-1,-1.00274265E-1,-6.288424E-2,-3.6226276E-2,3.917603E-1,-4.2752564E-1,5.29637E-1,-8.0647156E-2,-4.971078E-2,6.243195E-2,-7.36947E-2,1.9822653E-1,-1.862358E-1,-1.2507579E0,-9.129247E-2,1.4612642E-2,-5.2960332E-2,2.2042174E-2,2.3824034E-2,-9.192251E-2,-7.3150254E-4,-1.1148675E-1,1.605167E-2,4.3484733E-2,1.5708474E-2,-6.867726E-2,-8.5903E-2,2.3403075E-2,-7.379891E-2,-5.8023967E-2],"categories":[],"categories_nodes":[],"categories_segments":[],"categories_sizes":[],"default_left":[0,0,0,0,0,0,0,0,0,0,0,0,0,0,0,0,0,0,0,0,0,0,0,0,0,0,0,0,0,0,0,0,0,0,0,0,0,0,0,0,0,0,0,0,0],"id":29,"left_children":[1,3,5,7,9,11,13,15,17,19,21,23,-1,25,27,29,-1,-1,31,33,35,37,-1,-1,-1,-1,39,41,43,-1,-1,-1,-1,-1,-1,-1,-1,-1,-1,-1,-1,-1,-1,-1,-1],"loss_changes":[1.7393254E2,4.239481E1,9.11958E1,1.14192924E2,4.9072998E1,3.8017014E1,8.20114E1,6.2099777E1,9.5967354E1,8.780079E1,4.358287E1,1.860784E1,0E0,5.8107105E1,3.8341805E1,6.2452774E1,0E0,0E0,7.1803185E1,6.254774E1,1.6240964E2,3.6735413E1,0E0,0E0,0E0,0E0,5.2829044E1,5.7722134E1,6.77948E-2,0E0,0E0,0E0,0E0,0E0,0E0,0E0,0E0,0E0,0E0,0E0,0E0,0E0,0E0,0E0,0E0],"parents":[2147483647,0,0,1,1,2,2,3,3,4,4,5,5,6,6,7,7,8,8,9,9,10,10,11,11,13,13,14,14,15,15,18,18,19,19,20,20,21,21,26,26,27,27,28,28],"right_children":[2,4,6,8,10,12,14,16,18,20,22,24,-1,26,28,30,-1,-1,32,34,36,38,-1,-1,-1,-1,40,42,44,-1,-1,-1,-1,-1,-1,-1,-1,-1,-1,-1,-1,-1,-1,-1,-1],"split_conditions":[2E1,3.4E1,3E1,2.8E1,4.2E5,5.4888513E-2,8.38E2,2E1,2.9E1,6.35E2,5.8E1,6.5E1,-5.8383353E-2,6.377729E-2,7E5,5.7538036E-2,-1.00274265E-1,-6.288424E-2,8.38E2,1.8E1,1E1,8.46E2,-8.0647156E-2,-4.971078E-2,6.243195E-2,-7.36947E-2,1.003957E6,2.3E1,2.5E1,-9.129247E-2,1.4612642E-2,-5.2960332E-2,2.2042174E-2,2.3824034E-2,-9.192251E-2,-7.3150254E-4,-1.1148675E-1,1.605167E-2,4.3484733E-2,1.5708474E-2,-6.867726E-2,-8.5903E-2,2.3403075E-2,-7.379891E-2,-5.8023967E-2],"split_indices":[3,6,6,8,4,11,2,6,6,1,6,10,0,11,4,11,0,0,1,7,3,2,0,0,0,0,0,3,3,0,0,0,0,0,0,0,0,0,0,0,0,0,0,0,0],"split_type":[0,0,0,0,0,0,0,0,0,0,0,0,0,0,0,0,0,0,0,0,0,0,0,0,0,0,0,0,0,0,0,0,0,0,0,0,0,0,0,0,0,0,0,0,0],"sum_hessian":[2.6303677E3,1.9906674E3,6.397004E2,9.184475E2,1.0722198E3,1.8940562E2,4.5029477E2,6.586903E2,2.5975717E2,5.427018E2,5.295181E2,1.4441159E1,1.7496446E2,3.0792987E2,1.423649E2,6.471971E2,1.1493238E1,1.1458623E2,1.4517094E2,3.2540186E2,2.1729991E2,5.207939E2,8.7242365E0,4.7673407E0,9.673819E0,2.1403996E1,2.8652588E2,5.5789165E1,8.657574E1,1.3246728E1,6.339504E2,4.578149E1,9.938946E1,3.1425058E2,1.11512785E1,1.776154E2,3.96845E1,3.239905E2,1.9680338E2,2.6758722E2,1.893866E1,1.6210873E1,3.9578293E1,2.0381182E1,6.619455E1],"tree_param":{"num_deleted":"0","num_feature":"20","num_nodes":"45","size_leaf_vector":"1"}},{"base_weights":[-5.9167747E-3,1.4454533E-1,-4.2062148E-1,-9.344861E-2,1.5517277E-1,-1.0501598E0,-1.7334224E-1,7.1385133E-1,1.1942107E-1,3.7875843E-1,-5.825141E-2,-9.913811E-3,-9.2338234E-1,-8.919296E-2,8.3815235E-1,1.0980749E0,9.6028425E-2,6.2304057E-2,-5.031376E-2,9.956374E-2,-6.221798E-2,-1.6367176E0,1.54308E-1,4.512342E-2,-7.965921E-2,6.0745098E-2,-6.646138E-2,-9.9631734E-2,5.7049445E-3,-7.0807695E-2,9.478642E-3,-9.4148256E-2,-6.179554E-2,5.262812E-2,-5.6299932E-2],"categories":[],"categories_nodes":[],"categories_segments":[],"categories_sizes":[],"default_left":[0,0,0,0,0,0,0,0,0,0,0,0,0,0,0,0,0,0,0,0,0,0,0,0,0,0,0,0,0,0,0,0,0,0,0],"id":30,"left_children":[1,3,5,-1,7,9,11,13,15,17,-1,19,21,-1,23,25,27,-1,-1,29,-1,31,33,-1,-1,-1,-1,-1,-1,-1,-1,-1,-1,-1,-1],"loss_changes":[1.626393E2,4.1217194E1,1.0784125E2,0E0,3.7934692E1,3.253018E1,6.1208313E1,3.6976685E1,4.0878513E1,1.9634804E1,0E0,5.5678555E1,6.893287E1,0E0,1.8568039E1,1.3438957E1,6.625967E1,0E0,0E0,5.1908825E1,0E0,2.9870453E0,4.315747E1,0E0,0E0,0E0,0E0,0E0,0E0,0E0,0E0,0E0,0E0,0E0,0E0],"parents":[2147483647,0,0,1,1,2,2,4,4,5,5,6,6,7,7,8,8,9,9,11,11,12,12,14,14,15,15,16,16,19,19,21,21,22,22],"right_children":[2,4,6,-1,8,10,12,14,16,18,-1,20,22,-1,24,26,28,-1,-1,30,-1,32,34,-1,-1,-1,-1,-1,-1,-1,-1,-1,-1,-1,-1],"split_conditions":[6.4E5,1E0,3E1,-9.344861E-2,1.000227E6,1E0,1E0,1.6E1,1E0,1.5E1,-5.825141E-2,5.4E1,1.18E6,-8.919296E-2,7.316268E-1,1.003391E6,1.000353E6,6.2304057E-2,-5.031376E-2,6.142915E-2,-6.221798E-2,2.4E1,3.1E1,4.512342E-2,-7.965921E-2,6.0745098E-2,-6.646138E-2,-9.9631734E-2,5.7049445E-3,-7.0807695E-2,9.478642E-3,-9.4148256E-2,-6.179554E-2,5.262812E-2,-5.6299932E-2],"split_indices":[4,6,6,0,0,6,18,6,3,3,0,6,4,0,11,0,0,0,0,11,0,3,3,0,0,0,0,0,0,0,0,0,0,0,0],"split_type":[0,0,0,0,0,0,0,0,0,0,0,0,0,0,0,0,0,0,0,0,0,0,0,0,0,0,0,0,0,0,0,0,0,0,0],"sum_hessian":[2.6045354E3,1.9116184E3,6.9291705E2,9.118536E0,1.9024999E3,1.9450014E2,4.9841693E2,1.1328408E2,1.7892157E3,1.4301213E1,1.8019893E2,4.1007724E2,8.833971E1,4.737495E0,1.08546585E2,4.069653E1,1.7485192E3,8.855887E0,5.4453254E0,3.7751633E2,3.2560913E1,5.284337E1,3.5496338E1,1.0636182E2,2.1847682E0,3.9304283E1,1.3922458E0,1.4060629E1,1.7344586E3,2.033581E1,3.571805E2,3.04423E1,2.2401066E1,2.0965187E1,1.4531151E1],"tree_param":{"num_deleted":"0","num_feature":"20","num_nodes":"35","size_leaf_vector":"1"}},{"base_weights":[-6.0046758E-3,8.8840656E-2,-6.248742E-1,1.10367805E-1,-8.4676915E-1,-2.0841807E-1,-5.6892157E-2,3.8204578E-1,3.742424E-2,-6.456144E-2,5.0600547E-1,-8.834011E-1,1.3941543E-1,4.4909507E-1,-4.071016E-1,-7.554044E-2,5.9762675E-2,-5.394685E-2,5.7258554E-2,-6.0852982E-2,7.149717E-1,4.341372E-1,-5.9001278E-2,3.4582138E-2,1.2005022E-2,3.5889026E-2,-1.0141797E-1,3.654935E-3,-1.12269364E-1,-4.2640045E-2,5.4641623E-2,3.0225927E-2,-6.240437E-2],"categories":[],"categories_nodes":[],"categories_segments":[],"categories_sizes":[],"default_left":[0,0,0,0,0,0,0,0,0,0,0,0,0,0,0,0,0,0,0,0,0,0,0,0,0,0,0,0,0,0,0,0,0],"id":31,"left_children":[1,3,5,7,9,11,-1,13,15,-1,17,19,21,23,25,-1,27,-1,-1,-1,29,31,-1,-1,-1,-1,-1,-1,-1,-1,-1,-1,-1],"loss_changes":[1.520171E2,4.532524E1,7.3286575E1,4.3506767E1,3.109185E1,4.5007843E1,0E0,2.4772545E1,6.0005524E1,0E0,1.4646324E1,3.561558E1,4.990857E1,2.1570961E1,6.87839E1,0E0,5.2692856E1,0E0,0E0,0E0,7.97045E0,3.0724548E1,0E0,0E0,0E0,0E0,0E0,0E0,0E0,0E0,0E0,0E0,0E0],"parents":[2147483647,0,0,1,1,2,2,3,3,4,4,5,5,7,7,8,8,10,10,11,11,12,12,13,13,14,14,16,16,20,20,21,21],"right_children":[2,4,6,8,10,12,-1,14,16,-1,18,20,22,24,26,-1,28,-1,-1,-1,30,32,-1,-1,-1,-1,-1,-1,-1,-1,-1,-1,-1],"split_conditions":[2.6E1,2E1,2.1E1,6E0,2.3E1,1.1E1,-5.6892157E-2,1.019E3,3E0,-6.456144E-2,1E0,7.05E1,8.38E2,9E0,1.001956E6,-7.554044E-2,5.9E1,-5.394685E-2,5.7258554E-2,-6.0852982E-2,1E0,5.6332874E-1,-5.9001278E-2,3.4582138E-2,1.2005022E-2,3.5889026E-2,-1.0141797E-1,3.654935E-3,-1.12269364E-1,-4.2640045E-2,5.4641623E-2,3.0225927E-2,-6.240437E-2],"split_indices":[3,5,8,3,7,8,0,2,7,0,17,10,2,7,0,0,8,0,0,0,19,11,0,0,0,0,0,0,0,0,0,0,0],"split_type":[0,0,0,0,0,0,0,0,0,0,0,0,0,0,0,0,0,0,0,0,0,0,0,0,0,0,0,0,0,0,0,0,0],"sum_hessian":[2.587921E3,2.2447556E3,3.4316534E2,2.1951306E3,4.962502E1,1.9017624E2,1.529891E2,4.637306E2,1.7314E3,3.7386898E1,1.2238123E1,6.415041E1,1.26025826E2,4.278127E2,3.591786E1,2.3678194E1,1.7077218E3,3.3192704E0,8.918852E0,5.3269108E1,1.0881304E1,1.0356387E2,2.2461956E1,1.9694257E2,2.3087015E2,2.1534075E1,1.4383782E1,1.6988617E3,8.860163E0,1.8691483E0,9.012156E0,9.462099E1,8.942886E0],"tree_param":{"num_deleted":"0","num_feature":"20","num_nodes":"33","size_leaf_vector":"1"}},{"base_weights":[-6.0257465E-3,8.4526844E-2,-6.1376315E-1,2.0063017E-2,3.854151E-1,-2.0352122E-1,-5.6489047E-2,9.5000297E-1,-1.0017257E-2,6.5933675E-1,-9.646665E-2,-8.719574E-1,1.3338694E-1,-6.400991E-2,1.0740541E0,-7.708844E-2,1.0833465E-2,6.8972397E-1,-8.08621E-2,-1.3218255E0,3.6092645E-1,-6.0222853E-2,6.9530296E-1,4.1570842E-1,-5.8391817E-2,5.9144657E-2,-7.102641E-2,-9.172713E-2,1.3412427E-3,5.559622E-2,2.6514638E-2,6.1877917E-2,-1.10392906E-1,-1.0382406E-1,2.4930622E-2,5.3500768E-2,-4.21176E-2,2.8445823E-2,-6.65367E-2],"categories":[],"categories_nodes":[],"categories_segments":[],"categories_sizes":[],"default_left":[0,0,0,0,0,0,0,0,0,0,0,0,0,0,0,0,0,0,0,0,0,0,0,0,0,0,0,0,0,0,0,0,0,0,0,0,0,0,0],"id":32,"left_children":[1,3,5,7,9,11,-1,13,15,17,19,21,23,-1,25,-1,27,29,-1,31,33,-1,35,37,-1,-1,-1,-1,-1,-1,-1,-1,-1,-1,-1,-1,-1,-1,-1],"loss_changes":[1.4158669E2,4.342512E1,7.0397545E1,5.1624496E1,5.2208046E1,4.2248398E1,0E0,1.7372929E1,5.7133434E1,1.854821E1,8.1209816E1,3.3578217E1,4.650055E1,0E0,1.6700771E1,0E0,5.214439E1,1.6196426E1,0E0,9.200617E1,3.650021E1,0E0,7.602489E0,2.8494253E1,0E0,0E0,0E0,0E0,0E0,0E0,0E0,0E0,0E0,0E0,0E0,0E0,0E0,0E0,0E0],"parents":[2147483647,0,0,1,1,2,2,3,3,4,4,5,5,7,7,8,8,9,9,10,10,11,11,12,12,14,14,16,16,17,17,19,19,20,20,22,22,23,23],"right_children":[2,4,6,8,10,12,-1,14,16,18,20,22,24,-1,26,-1,28,30,-1,32,34,-1,36,38,-1,-1,-1,-1,-1,-1,-1,-1,-1,-1,-1,-1,-1,-1,-1],"split_conditions":[2.6E1,5.3E1,2.1E1,5.8E2,3.0863523E-1,1.1E1,-5.6489047E-2,8.015905E-2,3E0,1.03E3,6.151095E-1,7.05E1,8.38E2,-6.400991E-2,5.2E1,-7.708844E-2,5.81E2,1.000662E6,-8.08621E-2,1.000129E6,2.8E5,-6.0222853E-2,7.2682306E-2,8.57E2,-5.8391817E-2,5.9144657E-2,-7.102641E-2,-9.172713E-2,1.3412427E-3,5.559622E-2,2.6514638E-2,6.1877917E-2,-1.10392906E-1,-1.0382406E-1,2.4930622E-2,5.3500768E-2,-4.21176E-2,2.8445823E-2,-6.65367E-2],"split_indices":[3,8,8,1,11,8,0,11,7,1,11,10,2,0,6,0,1,0,0,0,4,0,11,1,0,0,0,0,0,0,0,0,0,0,0,0,0,0,0],"split_type":[0,0,0,0,0,0,0,0,0,0,0,0,0,0,0,0,0,0,0,0,0,0,0,0,0,0,0,0,0,0,0,0,0,0,0,0,0,0,0],"sum_hessian":[2.5708545E3,2.2382214E3,3.3263303E2,1.8441814E3,3.940401E2,1.8608612E2,1.465469E2,5.6825424E1,1.787356E3,2.5099554E2,1.4304454E2,6.182845E1,1.2425767E2,2.503179E0,5.4322247E1,2.3023762E1,1.7643322E3,2.483773E2,2.6182446E0,3.8367603E1,1.0467694E2,5.119809E1,1.063036E1,1.0266365E2,2.1594019E1,5.2555073E1,1.7671722E0,1.4180741E1,1.7501515E3,6.644515E1,1.8193214E2,9.764689E0,2.8602913E1,4.844E0,9.983294E1,8.791965E0,1.8383951E0,9.500363E1,7.660023E0],"tree_param":{"num_deleted":"0","num_feature":"20","num_nodes":"39","size_leaf_vector":"1"}},{"base_weights":[-6.0496368E-3,1.203099E-1,-4.2226806E-1,1.4109844E-1,-7.860963E-1,-1.0073134E0,-1.9415425E-1,-4.4871464E-1,1.7445867E-1,-6.453411E-2,5.469759E-2,5.303797E-1,-5.7349127E-2,7.589919E-2,-7.997059E-1,-3.6478825E-2,-9.4987676E-2,1.8633147E-1,-8.296826E-2,-4.7690745E-2,6.1019756E-2,-7.115216E-2,1.8723226E-1,-1.8761148E-1,-6.1215527E-2,-8.995611E-2,1.1796713E-2,5.3927746E-2,8.051918E-3,1.479922E-2,-6.731291E-2,-8.267032E-2,2.2233743E-2],"categories":[],"categories_nodes":[],"categories_segments":[],"categories_sizes":[],"default_left":[0,0,0,0,0,0,0,0,0,0,0,0,0,0,0,0,0,0,0,0,0,0,0,0,0,0,0,0,0,0,0,0,0],"id":33,"left_children":[1,3,5,7,9,11,13,15,17,-1,-1,19,-1,21,23,25,-1,27,-1,-1,-1,-1,29,31,-1,-1,-1,-1,-1,-1,-1,-1,-1],"loss_changes":[1.3446764E2,3.7068436E1,7.926891E1,3.782187E1,4.3273323E1,3.6430923E1,7.031952E1,6.1523087E1,3.9853878E1,0E0,0E0,1.6087944E1,0E0,5.0004047E1,3.423137E1,3.9417244E1,0E0,4.0570618E1,0E0,0E0,0E0,0E0,4.68137E1,5.2161777E1,0E0,0E0,0E0,0E0,0E0,0E0,0E0,0E0,0E0],"parents":[2147483647,0,0,1,1,2,2,3,3,4,4,5,5,6,6,7,7,8,8,11,11,13,13,14,14,15,15,17,17,22,22,23,23],"right_children":[2,4,6,8,10,12,14,16,18,-1,-1,20,-1,22,24,26,-1,28,-1,-1,-1,-1,30,32,-1,-1,-1,-1,-1,-1,-1,-1,-1],"split_conditions":[2E1,2E1,3E1,4E0,1.9E1,5.4888513E-2,8.38E2,8.45E2,8.5E5,-6.453411E-2,5.469759E-2,6.5E1,-5.7349127E-2,6.377729E-2,7E5,1.001214E6,-9.4987676E-2,1E0,-8.296826E-2,-4.7690745E-2,6.1019756E-2,-7.115216E-2,1.003957E6,2.3E1,-6.1215527E-2,-8.995611E-2,1.1796713E-2,5.3927746E-2,8.051918E-3,1.479922E-2,-6.731291E-2,-8.267032E-2,2.2233743E-2],"split_indices":[3,5,6,7,3,11,2,1,4,0,0,10,0,11,4,0,0,3,0,0,0,0,0,3,0,0,0,0,0,0,0,0,0],"split_type":[0,0,0,0,0,0,0,0,0,0,0,0,0,0,0,0,0,0,0,0,0,0,0,0,0,0,0,0,0,0,0,0,0],"sum_hessian":[2.5547852E3,1.9603535E3,5.9443176E2,1.917226E3,4.3127506E1,1.6579645E2,4.286353E2,1.01967995E2,1.815258E3,3.4248924E1,8.878581E0,1.3572465E1,1.5222398E2,2.9704083E2,1.3159447E2,8.0206665E1,2.1761333E1,1.8044736E3,1.0784385E1,4.186077E0,9.386388E0,1.9722565E1,2.773183E2,5.4488167E1,7.710629E1,9.986276E0,7.022038E1,4.8595837E1,1.7558778E3,2.5970734E2,1.7610947E1,1.5934084E1,3.8554085E1],"tree_param":{"num_deleted":"0","num_feature":"20","num_nodes":"33","size_leaf_vector":"1"}},{"base_weights":[-6.114076E-3,1.2332313E-1,-3.8328123E-1,-9.020078E-2,1.3351202E-1,-1.0227327E0,-1.5222588E-1,6.7108655E-1,9.967925E-2,4.1825622E-1,-5.73316E-2,5.5845506E-3,-8.9593977E-1,-8.501252E-2,7.9191375E-1,1.0186183E0,7.866972E-2,6.0826458E-2,-4.8535615E-2,1.07186E-1,-6.106474E-2,-1.5845504E0,1.7876066E-1,4.2776857E-2,-7.7515714E-2,5.6929614E-2,-6.6065215E-2,-9.5697746E-2,4.7958135E-3,-6.899383E-2,9.494479E-3,-8.957674E-2,-6.0372915E-2,5.009159E-2,-5.4891374E-2],"categories":[],"categories_nodes":[],"categories_segments":[],"categories_sizes":[],"default_left":[0,0,0,0,0,0,0,0,0,0,0,0,0,0,0,0,0,0,0,0,0,0,0,0,0,0,0,0,0,0,0,0,0,0,0],"id":34,"left_children":[1,3,5,-1,7,9,11,13,15,17,-1,19,21,-1,23,25,27,-1,-1,29,-1,31,33,-1,-1,-1,-1,-1,-1,-1,-1,-1,-1,-1,-1],"loss_changes":[1.239317E2,3.7355705E1,9.567412E1,0E0,3.4143967E1,3.1184555E1,5.6061203E1,3.3207256E1,3.410772E1,1.709095E1,0E0,4.9369568E1,6.2160873E1,0E0,1.7195457E1,1.2592342E1,5.9715637E1,0E0,0E0,4.523976E1,0E0,1.8222656E0,3.6352833E1,0E0,0E0,0E0,0E0,0E0,0E0,0E0,0E0,0E0,0E0,0E0,0E0],"parents":[2147483647,0,0,1,1,2,2,4,4,5,5,6,6,7,7,8,8,9,9,11,11,12,12,14,14,15,15,16,16,19,19,21,21,22,22],"right_children":[2,4,6,-1,8,10,12,14,16,18,-1,20,22,-1,24,26,28,-1,-1,30,-1,32,34,-1,-1,-1,-1,-1,-1,-1,-1,-1,-1,-1,-1],"split_conditions":[6.4E5,1E0,3E1,-9.020078E-2,1.000227E6,1E0,1E0,1.6E1,1E0,1.5E1,-5.73316E-2,5.4E1,1.18E6,-8.501252E-2,7.316268E-1,1.003391E6,1.000353E6,6.0826458E-2,-4.8535615E-2,6.142915E-2,-6.106474E-2,2.4E1,3.1E1,4.2776857E-2,-7.7515714E-2,5.6929614E-2,-6.6065215E-2,-9.5697746E-2,4.7958135E-3,-6.899383E-2,9.494479E-3,-8.957674E-2,-6.0372915E-2,5.009159E-2,-5.4891374E-2],"split_indices":[4,6,6,0,0,6,18,6,3,3,0,6,4,0,11,0,0,0,0,11,0,3,3,0,0,0,0,0,0,0,0,0,0,0,0],"split_type":[0,0,0,0,0,0,0,0,0,0,0,0,0,0,0,0,0,0,0,0,0,0,0,0,0,0,0,0,0,0,0,0,0,0,0],"sum_hessian":[2.5366035E3,1.8890035E3,6.476001E2,9.007886E0,1.8799956E3,1.709806E2,4.7661948E2,1.10198456E2,1.7697971E3,1.33492E1,1.5763141E2,3.9400674E2,8.261274E1,4.708979E0,1.0548948E2,3.849678E1,1.7313004E3,8.556009E0,4.793191E0,3.6471616E2,2.9290571E1,5.0061558E1,3.255118E1,1.03317726E2,2.1717494E0,3.7107582E1,1.3891953E0,1.3912458E1,1.717388E3,1.8388826E1,3.4632733E2,2.9899115E1,2.0162445E1,1.9921904E1,1.2629279E1],"tree_param":{"num_deleted":"0","num_feature":"20","num_nodes":"35","size_leaf_vector":"1"}},{"base_weights":[-6.1849314E-3,7.4328676E-2,-5.8298653E-1,1.3465505E-2,3.606258E-1,-1.8453711E-1,-5.5755682E-2,9.0895E-1,-1.5026108E-2,6.2576616E-1,-1.0128335E-1,3.307825E-2,-6.0531206E-2,-6.2486827E-2,1.0280757E0,-7.443186E-2,4.282615E-3,7.2226876E-1,-1.1455922E-1,-1.2783245E0,3.3920726E-1,2.0136073E-1,-6.3634075E-2,5.679049E-2,-6.8561606E-2,-6.989069E-3,9.75339E-3,4.2475097E-2,-4.8489333E-3,-1.0677011E-1,4.9945317E-2,5.901594E-2,-1.0453178E-1,-3.8926035E-2,3.1514898E-2,-2.9922161E-2,2.4089558E-2],"categories":[],"categories_nodes":[],"categories_segments":[],"categories_sizes":[],"default_left":[0,0,0,0,0,0,0,0,0,0,0,0,0,0,0,0,0,0,0,0,0,0,0,0,0,0,0,0,0,0,0,0,0,0,0,0,0],"id":35,"left_children":[1,3,5,7,9,11,-1,13,15,17,19,21,-1,-1,23,-1,25,27,29,31,33,35,-1,-1,-1,-1,-1,-1,-1,-1,-1,-1,-1,-1,-1,-1,-1],"loss_changes":[1.1717073E2,3.8575043E1,6.531904E1,4.6625744E1,4.7597225E1,3.9767357E1,0E0,1.5775887E1,5.0414257E1,1.7709412E1,7.426545E1,3.2724293E1,0E0,0E0,1.5503635E1,0E0,4.811741E1,2.284816E1,6.80959E1,8.033566E1,3.4462475E1,2.9839245E1,0E0,0E0,0E0,0E0,0E0,0E0,0E0,0E0,0E0,0E0,0E0,0E0,0E0,0E0,0E0],"parents":[2147483647,0,0,1,1,2,2,3,3,4,4,5,5,7,7,8,8,9,9,10,10,11,11,14,14,16,16,17,17,18,18,19,19,20,20,21,21],"right_children":[2,4,6,8,10,12,-1,14,16,